{"learner":{"attributes":{"best_iteration":"107","best_score":"0.06097560975609756","scikit_learn":"{\"_estimator_type\": \"classifier\"}"},"feature_names":["age","sex","cp","trestbps","chol","fbs","restecg","thalach","exang","oldpeak","slope","ca","thal","age_risk_score"],"feature_types":["float","float","float","float","float","float","float","float","float","float","float","float","float","float"],"gradient_booster":{"model":{"gbtree_model_param":{"num_parallel_tree":"1","num_trees":"138"},"iteration_indptr":[0,1,2,3,4,5,6,7,8,9,10,11,12,13,14,15,16,17,18,19,20,21,22,23,24,25,26,27,28,29,30,31,32,33,34,35,36,37,38,39,40,41,42,43,44,45,46,47,48,49,50,51,52,53,54,55,56,57,58,59,60,61,62,63,64,65,66,67,68,69,70,71,72,73,74,75,76,77,78,79,80,81,82,83,84,85,86,87,88,89,90,91,92,93,94,95,96,97,98,99,100,101,102,103,104,105,106,107,108,109,110,111,112,113,114,115,116,117,118,119,120,121,122,123,124,125,126,127,128,129,130,131,132,133,134,135,136,137,138],"tree_info":[0,0,0,0,0,0,0,0,0,0,0,0,0,0,0,0,0,0,0,0,0,0,0,0,0,0,0,0,0,0,0,0,0,0,0,0,0,0,0,0,0,0,0,0,0,0,0,0,0,0,0,0,0,0,0,0,0,0,0,0,0,0,0,0,0,0,0,0,0,0,0,0,0,0,0,0,0,0,0,0,0,0,0,0,0,0,0,0,0,0,0,0,0,0,0,0,0,0,0,0,0,0,0,0,0,0,0,0,0,0,0,0,0,0,0,0,0,0,0,0,0,0,0,0,0,0,0,0,0,0,0,0,0,0,0,0,0,0],"trees":[{"base_weights":[4.0809026E-1,-2.230717E0,9.39202E-1,-3.664017E0,-1.0053715E0,1.4011891E-1,1.0953104E0,-3.6757138E-2,-1.2367139E-1,-9.588529E-2,-7.206679E-2,-1.3811713E0,5.097227E-1,1.1271509E0,-1.3859228E-2,-9.7930545E-1,8.289526E-1,-8.455138E-2,3.2175235E-3,-4.1323477E-1,9.3135655E-1,1.8712267E-1,3.5104558E-2,-5.94272E-2,-2.6633753E-3,6.5078596E-3,2.8401684E-2,1.2345931E-2,-2.6639242E-2,6.5078596E-3,2.990244E-2,-3.7119493E-2,2.7289493E-2],"categories":[],"categories_nodes":[],"categories_segments":[],"categories_sizes":[],"default_left":[0,0,0,0,0,0,0,0,0,0,0,0,0,0,0,0,0,0,0,0,0,0,0,0,0,0,0,0,0,0,0,0,0],"id":0,"left_children":[1,3,5,7,9,11,13,-1,-1,-1,15,17,19,21,-1,23,25,-1,-1,27,29,31,-1,-1,-1,-1,-1,-1,-1,-1,-1,-1,-1],"loss_changes":[1.8194344E2,3.4597908E1,1.3260025E1,5.756241E0,2.6614481E1,1.1229936E1,4.973839E0,0E0,0E0,0E0,9.174134E0,8.706489E0,6.5301437E0,3.350296E0,0E0,4.7796364E0,2.0360851E-1,0E0,0E0,2.5755446E0,3.0453587E-1,6.3259263E0,0E0,0E0,0E0,0E0,0E0,0E0,0E0,0E0,0E0,0E0,0E0],"parents":[2147483647,0,0,1,1,2,2,3,3,4,4,5,5,6,6,10,10,11,11,12,12,13,13,15,15,16,16,19,19,20,20,21,21],"right_children":[2,4,6,8,10,12,14,-1,-1,-1,16,18,20,22,-1,24,26,-1,-1,28,30,32,-1,-1,-1,-1,-1,-1,-1,-1,-1,-1,-1],"split_conditions":[4E0,2E0,6.018076E-1,1.5245834E2,1E0,1E0,1.706474E2,-3.6757138E-2,-1.2367139E-1,-9.588529E-2,1E0,5.8021496E1,1E0,1.1234949E2,-1.3859228E-2,1.2470462E0,1.2512624E2,-8.455138E-2,3.2175235E-3,1.1139493E2,1.089765E2,1E0,3.5104558E-2,-5.94272E-2,-2.6633753E-3,6.5078596E-3,2.8401684E-2,1.2345931E-2,-2.6639242E-2,6.5078596E-3,2.990244E-2,-3.7119493E-2,2.7289493E-2],"split_indices":[2,10,9,7,1,1,7,0,0,0,11,0,11,3,0,9,3,0,0,3,3,11,0,0,0,0,0,0,0,0,0,0,0],"split_type":[0,0,0,0,0,0,0,0,0,0,0,0,0,0,0,0,0,0,0,0,0,0,0,0,0,0,0,0,0,0,0,0,0],"sum_hessian":[1.2732546E2,2.0796886E1,1.0652857E2,8.667835E0,1.2129052E1,1.772025E1,8.880833E1,1.9524815E0,6.7153535E0,2.8991394E0,9.229913E0,2.9287224E0,1.4791527E1,8.729959E1,1.5087358E0,4.5557904E0,4.6741223E0,1.035407E0,1.8933154E0,4.6445394E0,1.0146987E1,4.0528784E0,8.324671E1,1.5679018E0,2.9878883E0,1.2129052E0,3.4612172E0,1.7454002E0,2.8991394E0,1.2129052E0,8.934082E0,1.124156E0,2.9287224E0],"tree_param":{"num_deleted":"0","num_feature":"14","num_nodes":"33","size_leaf_vector":"1"}},{"base_weights":[3.1698564E-1,-2.389723E0,9.913684E-1,-3.2675676E0,-1.1100173E0,1.0389841E0,-4.3452967E-2,-9.619987E-3,-3.4871008E0,-2.0220416E0,-1.4539209E-1,2.2651201E-2,1.065666E0,-2.9248409E-2,-3.8060722E0,-8.8487305E-2,-7.026589E-1,-4.2772043E-2,5.784114E-1,-1.4282346E-2,1.8587423E-2,5.938182E-1,1.127185E0,-1.2543157E-1,-5.207263E-2,-4.335195E-2,1.8645888E-2,2.5874695E-2,-3.7455073E-4,2.3416458E-2,-1.993575E-2,3.4140848E-2,6.246344E-3],"categories":[],"categories_nodes":[],"categories_segments":[],"categories_sizes":[],"default_left":[0,0,0,0,0,0,0,0,0,0,0,0,0,0,0,0,0,0,0,0,0,0,0,0,0,0,0,0,0,0,0,0,0],"id":1,"left_children":[1,3,5,7,9,11,-1,-1,13,15,17,19,21,-1,23,-1,25,-1,27,-1,-1,29,31,-1,-1,-1,-1,-1,-1,-1,-1,-1,-1],"loss_changes":[2.2776024E2,2.4369598E1,1.307058E1,8.111954E0,9.959113E0,2.6397018E0,0E0,0E0,6.8479767E0,5.1637096E0,7.07198E0,1.3472604E0,2.1085434E0,0E0,1.5524292E0,0E0,4.588315E0,0E0,8.5310817E-1,0E0,0E0,3.6088514E0,5.9555817E-1,0E0,0E0,0E0,0E0,0E0,0E0,0E0,0E0,0E0,0E0],"parents":[2147483647,0,0,1,1,2,2,3,3,4,4,5,5,8,8,9,9,10,10,11,11,12,12,14,14,16,16,18,18,21,21,22,22],"right_children":[2,4,6,8,10,12,-1,-1,14,16,18,20,22,-1,24,-1,26,-1,28,-1,-1,30,32,-1,-1,-1,-1,-1,-1,-1,-1,-1,-1],"split_conditions":[6E0,5.602468E1,1.73E2,1.2351974E2,2E0,7E0,-4.3452967E-2,-9.619987E-3,1.9431952E2,2E0,2.654662E2,2.3372711E2,2E0,-2.9248409E-2,1E0,-8.8487305E-2,1.3714449E2,-4.2772043E-2,6.5E1,-1.4282346E-2,1.8587423E-2,6.346003E1,3.94E2,-1.2543157E-1,-5.207263E-2,-4.335195E-2,1.8645888E-2,2.5874695E-2,-3.7455073E-4,2.3416458E-2,-1.993575E-2,3.4140848E-2,6.246344E-3],"split_indices":[12,0,7,7,6,12,0,0,4,10,4,4,10,0,11,0,7,0,0,0,0,0,4,0,0,0,0,0,0,0,0,0,0],"split_type":[0,0,0,0,0,0,0,0,0,0,0,0,0,0,0,0,0,0,0,0,0,0,0,0,0,0,0,0,0,0,0,0,0],"sum_hessian":[1.224778E2,2.3921736E1,9.855606E1,1.3267324E1,1.0654412E1,9.7232605E1,1.3234578E0,1.0904437E0,1.2176881E1,4.9130635E0,5.7413483E0,2.5346627E0,9.4697945E1,1.828953E0,1.0347928E1,2.1594098E0,2.753654E0,1.723266E0,4.018082E0,1.4912181E0,1.0434445E0,1.2151226E1,8.2546715E1,7.8979206E0,2.4500074E0,1.705937E0,1.0477169E0,2.4031289E0,1.6149535E0,1.0911697E1,1.2395283E0,8.1348495E1,1.1982212E0],"tree_param":{"num_deleted":"0","num_feature":"14","num_nodes":"33","size_leaf_vector":"1"}},{"base_weights":[3.393314E-1,-2.217633E0,1.0054762E0,-3.1441653E0,-6.342719E-1,-4.632452E-1,1.1392515E0,-1.1295939E-1,-1.8442404E0,-1.7339176E0,8.0707675E-1,-1.3003908E0,5.4995483E-1,2.8910432E-3,1.1599561E0,-7.5663574E-2,-6.2076586E-1,-2.2132614E0,6.235707E-3,2.7816644E-2,6.412053E-3,-5.7194408E-2,-5.0044006E-1,-7.266068E-3,2.6290972E-2,7.275085E-1,3.5751335E-2,-4.7770694E-2,2.1033369E-2,-1.3070439E-2,-8.485442E-2,-3.6417536E-2,9.619037E-3,2.7667303E-2,-1.0386534E-2],"categories":[],"categories_nodes":[],"categories_segments":[],"categories_sizes":[],"default_left":[0,0,0,0,0,0,0,0,0,0,0,0,0,0,0,0,0,0,0,0,0,0,0,0,0,0,0,0,0,0,0,0,0,0,0],"id":2,"left_children":[1,3,5,7,9,11,13,-1,15,17,19,21,23,-1,25,-1,27,29,-1,-1,-1,-1,31,-1,-1,33,-1,-1,-1,-1,-1,-1,-1,-1,-1],"loss_changes":[2.1438799E2,3.6229385E1,2.0077675E1,6.123581E0,1.8629602E1,8.363541E0,1.863594E0,0E0,4.3998737E0,6.4952507E0,1.8583703E-1,1.5839767E0,1.448842E0,0E0,3.6361694E-1,0E0,6.113617E0,4.548641E0,0E0,0E0,0E0,0E0,2.5054624E0,0E0,0E0,2.1378613E0,0E0,0E0,0E0,0E0,0E0,0E0,0E0,0E0,0E0],"parents":[2147483647,0,0,1,1,2,2,3,3,4,4,5,5,6,6,8,8,9,9,10,10,11,11,12,12,14,14,16,16,17,17,22,22,25,25],"right_children":[2,4,6,8,10,12,14,-1,16,18,20,22,24,-1,26,-1,28,30,-1,-1,-1,-1,32,-1,-1,34,-1,-1,-1,-1,-1,-1,-1,-1,-1],"split_conditions":[6E0,4E0,4E0,1.341929E2,1E0,1E0,7E0,-1.1295939E-1,2E0,1.6050792E0,1.4408255E2,6.018076E-1,2E0,2.8910432E-3,4.146434E-1,-7.5663574E-2,1E0,1.9762723E2,6.235707E-3,2.7816644E-2,6.412053E-3,-5.7194408E-2,2E0,-7.266068E-3,2.6290972E-2,1.7035258E-1,3.5751335E-2,-4.7770694E-2,2.1033369E-2,-1.3070439E-2,-8.485442E-2,-3.6417536E-2,9.619037E-3,2.7667303E-2,-1.0386534E-2],"split_indices":[12,2,2,3,8,11,12,0,10,9,7,9,10,0,9,0,11,4,0,0,0,0,2,0,0,9,0,0,0,0,0,0,0,0,0],"split_type":[0,0,0,0,0,0,0,0,0,0,0,0,0,0,0,0,0,0,0,0,0,0,0,0,0,0,0,0,0,0,0,0,0,0,0],"sum_hessian":[1.2355653E2,2.505502E1,9.850152E1,1.5184047E1,9.870973E0,8.017236E0,9.048428E1,8.991191E0,6.192856E0,5.4840517E0,4.386921E0,4.234815E0,3.78242E0,1.8715078E0,8.861277E1,3.3019414E0,2.8909142E0,4.286162E0,1.1978899E0,3.1802475E0,1.2066737E0,1.6223679E0,2.6124475E0,1.1790359E0,2.603384E0,7.6974373E0,8.091534E1,1.5482916E0,1.3426228E0,1.5412202E0,2.744942E0,1.1418124E0,1.470635E0,6.635145E0,1.0622925E0],"tree_param":{"num_deleted":"0","num_feature":"14","num_nodes":"35","size_leaf_vector":"1"}},{"base_weights":[3.5151374E-1,-1.9937657E0,9.277575E-1,-9.444536E-2,-8.0618864E-1,-1.4676103E-1,1.0864975E0,-7.7103004E-2,-8.4704846E-2,1.0461285E-1,-4.416706E-2,-1.9609025E-2,1.118642E0,7.566431E-1,-6.27525E-1,-4.6436462E-1,7.202732E-1,4.7901633E-1,1.1727461E0,2.676049E-2,4.031681E-3,-5.2627437E-2,5.571845E-3,8.793254E-3,-3.851526E-2,2.844494E-2,3.2271852E-3,-1.3761656E-2,2.5792781E-2,1.35601135E-2,3.5540093E-2],"categories":[],"categories_nodes":[],"categories_segments":[],"categories_sizes":[],"default_left":[0,0,0,0,0,0,0,0,0,0,0,0,0,0,0,0,0,0,0,0,0,0,0,0,0,0,0,0,0,0,0],"id":3,"left_children":[1,3,5,-1,7,9,11,-1,13,15,-1,-1,17,19,21,23,25,27,29,-1,-1,-1,-1,-1,-1,-1,-1,-1,-1,-1,-1],"loss_changes":[1.727818E2,3.2098633E1,1.7594276E1,0E0,1.7341677E1,4.831257E0,5.7194214E0,0E0,5.419251E0,4.795008E0,0E0,0E0,2.4811249E0,2.7595735E-1,6.856676E0,4.8615313E0,8.066952E-1,3.4463809E0,1.5532684E-1,0E0,0E0,0E0,0E0,0E0,0E0,0E0,0E0,0E0,0E0,0E0,0E0],"parents":[2147483647,0,0,1,1,2,2,4,4,5,5,6,6,8,8,9,9,12,12,13,13,14,14,15,15,16,16,17,17,18,18],"right_children":[2,4,6,-1,8,10,12,-1,14,16,-1,-1,18,20,22,24,26,28,30,-1,-1,-1,-1,-1,-1,-1,-1,-1,-1,-1,-1],"split_conditions":[4E0,2E0,4.146434E-1,-9.444536E-2,1E0,1.7035258E-1,1.089765E2,-7.7103004E-2,3.6344162E-1,5.7112915E1,-4.416706E-2,-1.9609025E-2,1E0,1.6841608E2,5.602468E1,1.5728651E2,5.811287E-1,1.6050792E0,1.1018708E2,2.676049E-2,4.031681E-3,-5.2627437E-2,5.571845E-3,8.793254E-3,-3.851526E-2,2.844494E-2,3.2271852E-3,-1.3761656E-2,2.5792781E-2,1.35601135E-2,3.5540093E-2],"split_indices":[2,10,9,0,1,9,3,0,13,0,0,0,1,7,0,7,13,9,3,0,0,0,0,0,0,0,0,0,0,0,0],"split_type":[0,0,0,0,0,0,0,0,0,0,0,0,0,0,0,0,0,0,0,0,0,0,0,0,0,0,0,0,0,0,0],"sum_hessian":[1.25480255E2,2.4264633E1,1.0121562E2,1.1466966E1,1.2797668E1,1.3037777E1,8.817785E1,2.9712353E0,9.826433E0,1.1733596E1,1.3041806E0,1.2486439E0,8.69292E1,3.6990902E0,6.127343E0,6.225705E0,5.507891E0,7.5481005E0,7.93811E1,2.6820722E0,1.0170181E0,2.0835752E0,4.043768E0,3.569036E0,2.6566691E0,3.6155744E0,1.8923167E0,2.1205516E0,5.4275484E0,1.9250822E0,7.745602E1],"tree_param":{"num_deleted":"0","num_feature":"14","num_nodes":"31","size_leaf_vector":"1"}},{"base_weights":[4.036719E-1,-1.8860646E0,9.234939E-1,-8.90174E-2,-6.097279E-1,-2.2449794E-1,1.0533711E0,-6.4530164E-2,-1.4735122E-1,-1.8501642E0,6.7613566E-1,1.0946066E0,-3.349422E-2,7.157545E-1,-6.682772E-1,-7.887964E-2,-1.73136E-2,-1.3527138E-2,3.0353623E-2,6.130309E-1,1.1420714E0,2.5582917E-2,3.9756233E-3,-6.842985E-2,5.8632508E-5,2.1534914E-3,3.0180387E-2,1.4112469E-2,3.4943234E-2],"categories":[],"categories_nodes":[],"categories_segments":[],"categories_sizes":[],"default_left":[0,0,0,0,0,0,0,0,0,0,0,0,0,0,0,0,0,0,0,0,0,0,0,0,0,0,0,0,0],"id":4,"left_children":[1,3,5,-1,7,9,11,-1,13,15,17,19,-1,21,23,-1,-1,-1,-1,25,27,-1,-1,-1,-1,-1,-1,-1,-1],"loss_changes":[1.5054074E2,3.0562729E1,1.5527306E1,0E0,8.247004E0,1.7718948E1,9.4813385E0,0E0,5.1171966E0,2.725378E0,3.4712818E0,1.3820267E0,0E0,2.3588443E-1,7.518071E0,0E0,0E0,0E0,0E0,2.125267E0,6.9880676E-1,0E0,0E0,0E0,0E0,0E0,0E0,0E0,0E0],"parents":[2147483647,0,0,1,1,2,2,4,4,5,5,6,6,8,8,9,9,10,10,11,11,13,13,14,14,19,19,20,20],"right_children":[2,4,6,-1,8,10,12,-1,14,16,18,20,-1,22,24,-1,-1,-1,-1,26,28,-1,-1,-1,-1,-1,-1,-1,-1],"split_conditions":[4E0,2E0,1E0,-8.90174E-2,1E0,1E0,1.75E2,-6.4530164E-2,3.6344162E-1,5.8021496E1,6.018076E-1,4.146434E-1,-3.349422E-2,1.6841608E2,5.4062813E1,-7.887964E-2,-1.73136E-2,-1.3527138E-2,3.0353623E-2,1E0,1.1018708E2,2.5582917E-2,3.9756233E-3,-6.842985E-2,5.8632508E-5,2.1534914E-3,3.0180387E-2,1.4112469E-2,3.4943234E-2],"split_indices":[2,10,1,0,1,8,7,0,13,0,9,9,0,7,0,0,0,0,0,6,3,0,0,0,0,0,0,0,0],"split_type":[0,0,0,0,0,0,0,0,0,0,0,0,0,0,0,0,0,0,0,0,0,0,0,0,0,0,0,0,0],"sum_hessian":[1.2401432E2,2.2458736E1,1.0155559E2,1.14416895E1,1.1017046E1,1.0247629E1,9.130795E1,1.6995928E0,9.317453E0,3.277453E0,6.970176E0,9.00914E1,1.2165539E0,3.366162E0,5.951291E0,1.3722167E0,1.9052362E0,1.5206888E0,5.4494877E0,9.331335E0,8.076006E1,2.3516076E0,1.0145544E0,1.0416262E0,4.909665E0,4.4226923E0,4.908643E0,3.3507593E0,7.740931E1],"tree_param":{"num_deleted":"0","num_feature":"14","num_nodes":"29","size_leaf_vector":"1"}},{"base_weights":[3.589953E-1,-1.8746442E0,9.764436E-1,-2.5823956E0,-6.893091E-1,-5.4498356E-2,1.044275E0,-8.9289084E-2,-1.3358108E0,-1.2069652E0,6.3669395E-1,6.5971404E-2,1.1087749E0,-7.166619E-2,2.394685E-1,-1.7154844E0,2.1042317E-1,2.2908561E-2,5.340121E-3,-8.9730287E-1,7.507774E-1,5.560585E-1,1.1598831E0,-8.289343E-3,1.9465033E-2,6.8283263E-3,-6.641889E-2,1.8929083E-2,-9.04135E-3,-4.8012868E-2,6.240489E-3,2.6330143E-2,4.857136E-3,-1.3162433E-2,3.077246E-2,1.5011428E-2,3.514042E-2],"categories":[],"categories_nodes":[],"categories_segments":[],"categories_sizes":[],"default_left":[0,0,0,0,0,0,0,0,0,0,0,0,0,0,0,0,0,0,0,0,0,0,0,0,0,0,0,0,0,0,0,0,0,0,0,0,0],"id":5,"left_children":[1,3,5,7,9,-1,11,-1,13,15,17,19,21,-1,23,25,27,-1,-1,29,31,33,35,-1,-1,-1,-1,-1,-1,-1,-1,-1,-1,-1,-1,-1,-1],"loss_changes":[1.7320398E2,2.1082985E1,2.0465118E1,4.2245407E0,8.69854E0,0E0,6.004547E0,0E0,1.02336235E1,6.5988503E0,9.103668E-2,5.3049583E0,1.9057922E0,0E0,8.638879E-1,6.779028E0,8.7372446E-1,0E0,0E0,2.9541776E0,2.052176E-1,4.918707E0,3.1837463E-2,0E0,0E0,0E0,0E0,0E0,0E0,0E0,0E0,0E0,0E0,0E0,0E0,0E0,0E0],"parents":[2147483647,0,0,1,1,2,2,3,3,4,4,6,6,8,8,9,9,10,10,11,11,12,12,14,14,15,15,16,16,19,19,20,20,21,21,22,22],"right_children":[2,4,6,8,10,-1,12,-1,14,16,18,20,22,-1,24,26,28,-1,-1,30,32,34,36,-1,-1,-1,-1,-1,-1,-1,-1,-1,-1,-1,-1,-1,-1],"split_conditions":[6E0,4E0,2E0,1E0,1.5051425E0,-5.4498356E-2,4E0,-8.9289084E-2,2E0,1E0,2.6936398E2,1E0,4.146434E-1,-7.166619E-2,7.017719E-1,1.9184937E2,5.602468E1,2.2908561E-2,5.340121E-3,6.018076E-1,2.56423E2,2.3372711E2,7E0,-8.289343E-3,1.9465033E-2,6.8283263E-3,-6.641889E-2,1.8929083E-2,-9.04135E-3,-4.8012868E-2,6.240489E-3,2.6330143E-2,4.857136E-3,-1.3162433E-2,3.077246E-2,1.5011428E-2,3.514042E-2],"split_indices":[12,2,2,11,9,0,2,0,10,11,4,11,9,0,9,4,0,0,0,9,4,4,12,0,0,0,0,0,0,0,0,0,0,0,0,0,0],"split_type":[0,0,0,0,0,0,0,0,0,0,0,0,0,0,0,0,0,0,0,0,0,0,0,0,0,0,0,0,0,0,0,0,0,0,0,0,0],"sum_hessian":[1.2325961E2,2.6252872E1,9.700674E1,1.56999655E1,1.0552907E1,1.6887518E0,9.5317986E1,1.08757715E1,4.824194E0,7.654465E0,2.8984418E0,6.020756E0,8.929723E1,2.5818026E0,2.2423916E0,5.4785876E0,2.1758773E0,1.7495416E0,1.1489003E0,2.3727927E0,3.647963E0,8.563733E0,8.07335E1,1.1360514E0,1.10634E0,1.2294644E0,4.2491236E0,1.0666077E0,1.1092697E0,1.1764711E0,1.1963216E0,2.597756E0,1.0502071E0,2.7676706E0,5.7960625E0,2.1422737E0,7.8591225E1],"tree_param":{"num_deleted":"0","num_feature":"14","num_nodes":"37","size_leaf_vector":"1"}},{"base_weights":[3.3740857E-1,-1.8841487E0,9.549397E-1,-2.123328E0,5.2429205E-1,-5.5990136E-1,1.0894619E0,-7.128242E-2,-7.2530854E-1,1.8933324E-2,5.3205765E-3,5.9677523E-1,-1.1583902E0,4.1413417E-1,1.1530721E0,-6.345859E-2,1.8042403E-1,3.8997484E-3,2.1925848E-2,1.0095461E-2,-1.7383505E0,-5.1065546E-1,2.987306E-2,1.3094158E-2,3.4943443E-2,2.3119513E-2,-1.8400412E-2,-6.698104E-2,-6.6473316E-3,-4.6481762E-2,1.3728307E-2],"categories":[],"categories_nodes":[],"categories_segments":[],"categories_sizes":[],"default_left":[0,0,0,0,0,0,0,0,0,0,0,0,0,0,0,0,0,0,0,0,0,0,0,0,0,0,0,0,0,0,0],"id":6,"left_children":[1,3,5,7,9,11,13,-1,15,-1,-1,17,19,21,23,-1,25,-1,-1,-1,27,29,-1,-1,-1,-1,-1,-1,-1,-1,-1],"loss_changes":[1.6793999E2,1.6480965E1,2.0055977E1,6.921692E0,7.105708E-3,6.536398E0,3.30204E0,0E0,6.909774E0,0E0,0E0,1.2650526E-1,5.7040186E0,5.421752E0,1.6159058E-1,0E0,2.3752675E0,0E0,0E0,0E0,2.8166351E0,4.920996E0,0E0,0E0,0E0,0E0,0E0,0E0,0E0,0E0,0E0],"parents":[2147483647,0,0,1,1,2,2,3,3,4,4,5,5,6,6,8,8,11,11,12,12,13,13,14,14,16,16,20,20,21,21],"right_children":[2,4,6,8,10,12,14,-1,16,-1,-1,18,20,22,24,-1,26,-1,-1,-1,28,30,-1,-1,-1,-1,-1,-1,-1,-1,-1],"split_conditions":[6E0,2.000981E0,4E0,1E0,1E0,1.4218675E2,4.146434E-1,-7.128242E-2,4E0,1.8933324E-2,5.3205765E-3,6.018076E-1,4.8098016E-1,2.3372711E2,7E0,-6.345859E-2,1.4408255E2,3.8997484E-3,2.1925848E-2,1.0095461E-2,1.6348488E2,5.9068565E1,2.987306E-2,1.3094158E-2,3.4943443E-2,2.3119513E-2,-1.8400412E-2,-6.698104E-2,-6.6473316E-3,-4.6481762E-2,1.3728307E-2],"split_indices":[12,9,2,8,8,7,9,0,2,0,0,9,13,4,12,0,7,0,0,0,7,0,0,0,0,0,0,0,0,0,0],"split_type":[0,0,0,0,0,0,0,0,0,0,0,0,0,0,0,0,0,0,0,0,0,0,0,0,0,0,0,0,0,0,0],"sum_hessian":[1.20104355E2,2.5677807E1,9.442655E1,2.3465826E1,2.2119808E0,7.443528E0,8.6983025E1,1.9280445E1,4.185381E0,1.0649992E0,1.1469815E0,2.5391235E0,4.9044046E0,8.134324E0,7.88487E1,1.1243936E0,3.0609872E0,1.0061076E0,1.5330161E0,1.4881952E0,3.4162095E0,3.1878023E0,4.9465218E0,1.883049E0,7.696565E1,1.7722893E0,1.288698E0,2.2204926E0,1.1957169E0,1.2483858E0,1.9394165E0],"tree_param":{"num_deleted":"0","num_feature":"14","num_nodes":"31","size_leaf_vector":"1"}},{"base_weights":[3.533665E-1,-1.5663007E0,9.5407605E-1,-2.5779643E0,-7.827973E-1,-5.1125E-2,1.0249157E0,-2.77879E0,-1.6453492E-2,-1.5123228E0,2.4092138E-1,2.894488E-1,3.40521E-2,-8.896599E-2,-2.651323E-2,-2.2147593E0,-3.1880563E-1,6.245212E-1,-3.1829618E-2,-2.986584E-1,8.769555E-1,-2.4496613E-2,-7.3758975E-2,-1.8552113E-2,8.9468025E-3,2.5337268E-2,-8.2583055E-3,-5.886739E-2,1.1034888E-2,4.7716084E-3,2.9686667E-2],"categories":[],"categories_nodes":[],"categories_segments":[],"categories_sizes":[],"default_left":[0,0,0,0,0,0,0,0,0,0,0,0,0,0,0,0,0,0,0,0,0,0,0,0,0,0,0,0,0,0,0],"id":7,"left_children":[1,3,5,7,9,-1,11,13,-1,15,17,19,-1,-1,-1,21,23,25,-1,27,29,-1,-1,-1,-1,-1,-1,-1,-1,-1,-1],"loss_changes":[1.4066417E2,2.1081802E1,1.917321E1,3.4824066E0,1.3702305E1,0E0,7.024742E0,1.2475662E0,0E0,8.15176E0,4.8046865E0,4.810884E0,0E0,0E0,0E0,2.0297623E-1,1.1240035E0,1.6256125E0,0E0,8.843944E0,3.9554548E-1,0E0,0E0,0E0,0E0,0E0,0E0,0E0,0E0,0E0,0E0],"parents":[2147483647,0,0,1,1,2,2,3,3,4,4,6,6,7,7,9,9,10,10,11,11,15,15,16,16,17,17,19,19,20,20],"right_children":[2,4,6,8,10,-1,12,14,-1,16,18,20,-1,-1,-1,22,24,26,-1,28,30,-1,-1,-1,-1,-1,-1,-1,-1,-1,-1],"split_conditions":[6E0,1E0,2E0,1E0,4E0,-5.1125E-2,4.146434E-1,3.19E2,-1.6453492E-2,1.3037663E2,1.3889598E2,5.7112915E1,3.40521E-2,-8.896599E-2,-2.651323E-2,1.1520063E2,1.0051545E0,2.900831E2,-3.1829618E-2,2.264391E2,1.2469914E2,-2.4496613E-2,-7.3758975E-2,-1.8552113E-2,8.9468025E-3,2.5337268E-2,-8.2583055E-3,-5.886739E-2,1.1034888E-2,4.7716084E-3,2.9686667E-2],"split_indices":[12,1,2,8,2,0,9,4,0,3,3,0,0,0,0,3,9,4,0,4,7,0,0,0,0,0,0,0,0,0,0],"split_type":[0,0,0,0,0,0,0,0,0,0,0,0,0,0,0,0,0,0,0,0,0,0,0,0,0,0,0,0,0,0,0],"sum_hessian":[1.19685326E2,2.8142826E1,9.1542496E1,1.1283375E1,1.6859451E1,1.7777077E0,8.976479E1,9.931443E0,1.3519322E0,9.565541E0,7.2939095E0,1.2165704E1,7.759909E1,8.526312E0,1.4051311E0,5.4829373E0,4.082604E0,6.0357995E0,1.25811E0,6.325445E0,5.8402586E0,1.4600807E0,4.0228567E0,2.7467203E0,1.3358839E0,4.899059E0,1.1367406E0,1.2532102E0,5.072235E0,1.1189225E0,4.7213364E0],"tree_param":{"num_deleted":"0","num_feature":"14","num_nodes":"31","size_leaf_vector":"1"}},{"base_weights":[3.0538148E-1,-1.6346375E0,9.5343417E-1,-2.3058267E0,-3.8312128E-1,-3.330183E-1,1.0615678E0,-2.3913329E0,-2.7570957E-2,-1.037729E0,7.637036E-1,-1.10483E0,6.6488826E-1,2.0500113E-1,1.0825768E0,-8.0511324E-2,-1.517721E0,-1.4470636E0,1.1210795E-2,4.401661E-3,2.6761224E-2,-1.0215861E-2,-4.211659E-2,2.3871394E-2,5.43844E-3,-1.1193086E-2,1.9394623E-2,6.4822984E-1,3.414693E-2,-6.43019E-2,-2.6142257E-3,-4.1304913E-4,-6.924077E-2,3.01804E-3,3.0264666E-2],"categories":[],"categories_nodes":[],"categories_segments":[],"categories_sizes":[],"default_left":[0,0,0,0,0,0,0,0,0,0,0,0,0,0,0,0,0,0,0,0,0,0,0,0,0,0,0,0,0,0,0,0,0,0,0],"id":8,"left_children":[1,3,5,7,9,11,13,15,-1,17,19,21,23,25,27,-1,29,31,-1,-1,-1,-1,-1,-1,-1,-1,-1,33,-1,-1,-1,-1,-1,-1,-1],"loss_changes":[1.5143118E2,2.4499916E1,1.2871933E1,1.1104584E-1,9.611962E0,6.6950336E0,1.2762299E0,4.5176697E-1,0E0,5.106621E0,2.527578E-1,6.05237E-1,1.087842E-1,1.0647209E0,1.2207947E0,0E0,5.8494835E0,7.7813234E0,0E0,0E0,0E0,0E0,0E0,0E0,0E0,0E0,0E0,2.1744933E0,0E0,0E0,0E0,0E0,0E0,0E0,0E0],"parents":[2147483647,0,0,1,1,2,2,3,3,4,4,5,5,6,6,7,7,9,9,10,10,11,11,12,12,13,13,14,14,16,16,17,17,27,27],"right_children":[2,4,6,8,10,12,14,16,-1,18,20,22,24,26,28,-1,30,32,-1,-1,-1,-1,-1,-1,-1,-1,-1,34,-1,-1,-1,-1,-1,-1,-1],"split_conditions":[6E0,4E0,4E0,3.19E2,1E0,1E0,7E0,2E0,-2.7570957E-2,1.4018057E2,1E0,2.3132275E2,1.3310052E2,2.05E2,2E0,-8.0511324E-2,1E0,1.9762723E2,1.1210795E-2,4.401661E-3,2.6761224E-2,-1.0215861E-2,-4.211659E-2,2.3871394E-2,5.43844E-3,-1.1193086E-2,1.9394623E-2,2.3372711E2,3.414693E-2,-6.43019E-2,-2.6142257E-3,-4.1304913E-4,-6.924077E-2,3.01804E-3,3.0264666E-2],"split_indices":[12,2,2,4,11,11,12,10,0,3,6,4,3,4,10,0,11,4,0,0,0,0,0,0,0,0,0,4,0,0,0,0,0,0,0],"split_type":[0,0,0,0,0,0,0,0,0,0,0,0,0,0,0,0,0,0,0,0,0,0,0,0,0,0,0,0,0,0,0,0,0,0,0],"sum_hessian":[1.1820819E2,2.9218107E1,8.899009E1,1.8470133E1,1.0747975E1,6.738868E0,8.225122E1,1.671516E1,1.7549723E0,6.902918E0,3.8450572E0,3.7394865E0,2.9993818E0,2.2266214E0,8.00246E1,1.09713335E1,5.7438264E0,5.3314586E0,1.5714588E0,1.0311337E0,2.8139236E0,1.6531616E0,2.086325E0,1.8527944E0,1.1465875E0,1.0312047E0,1.1954167E0,1.0525671E1,6.9498924E1,3.6494422E0,2.0943842E0,2.3819973E0,2.9494615E0,4.686823E0,5.838848E0],"tree_param":{"num_deleted":"0","num_feature":"14","num_nodes":"35","size_leaf_vector":"1"}},{"base_weights":[3.1970343E-1,-1.4448646E0,9.102153E-1,-1.9677297E0,-3.7177765E-1,1.0899898E-1,1.0568746E0,-2.2417632E-1,-2.206032E0,-1.4892826E0,5.946074E-1,-8.386444E-1,7.4009776E-1,1.0812994E0,-5.5476185E-3,-2.8971566E-2,2.0440493E-2,-2.3923063E0,-9.318543E-3,-6.383852E-1,-6.331025E-2,-3.3060333E-4,7.8020096E-1,-7.2069176E-2,3.020214E-1,2.2108416E-1,8.732384E-1,1.106294E0,1.6903201E-1,-8.09696E-2,-2.3807533E-2,-3.7340727E-2,8.323585E-3,7.6029724E-3,2.6678538E-2,-6.23549E-3,2.2263322E-2,-1.0291879E-2,1.95126E-2,2.8368381E-3,2.9623084E-2,3.3578206E-2,6.573039E-3,1.8607605E-2,-1.1788671E-2],"categories":[],"categories_nodes":[],"categories_segments":[],"categories_sizes":[],"default_left":[0,0,0,0,0,0,0,0,0,0,0,0,0,0,0,0,0,0,0,0,0,0,0,0,0,0,0,0,0,0,0,0,0,0,0,0,0,0,0,0,0,0,0,0,0],"id":9,"left_children":[1,3,5,7,9,11,13,15,17,19,21,23,25,27,-1,-1,-1,29,-1,31,-1,-1,33,-1,35,37,39,41,43,-1,-1,-1,-1,-1,-1,-1,-1,-1,-1,-1,-1,-1,-1,-1,-1],"loss_changes":[1.2292223E2,1.5904011E1,1.0231941E1,7.6917496E0,1.2707227E1,9.435702E0,2.454033E0,2.9962378E0,5.3368607E0,1.4862356E0,7.487428E-1,1.2070863E1,4.5501947E-1,1.4782028E0,0E0,0E0,0E0,5.4725723E0,0E0,2.3976274E0,0E0,0E0,6.505132E-2,0E0,1.1788539E0,1.011207E0,5.4019547E-1,5.712204E-1,1.0369027E0,0E0,0E0,0E0,0E0,0E0,0E0,0E0,0E0,0E0,0E0,0E0,0E0,0E0,0E0,0E0,0E0],"parents":[2147483647,0,0,1,1,2,2,3,3,4,4,5,5,6,6,7,7,8,8,9,9,10,10,11,11,12,12,13,13,17,17,19,19,22,22,24,24,25,25,26,26,27,27,28,28],"right_children":[2,4,6,8,10,12,14,16,18,20,22,24,26,28,-1,-1,-1,30,-1,32,-1,-1,34,-1,36,38,40,42,44,-1,-1,-1,-1,-1,-1,-1,-1,-1,-1,-1,-1,-1,-1,-1,-1],"split_conditions":[6E0,1E0,6.018076E-1,1.382865E2,2E0,1E0,1.706474E2,1E0,1.6050792E0,1.352091E-1,1E0,2.4052258E2,2E0,3E0,-5.5476185E-3,-2.8971566E-2,2.0440493E-2,5.101808E-1,-9.318543E-3,1E0,-6.331025E-2,-3.3060333E-4,6E-1,-7.2069176E-2,1E0,2.35E2,1.2757386E2,3.696032E2,2.2915254E2,-8.09696E-2,-2.3807533E-2,-3.7340727E-2,8.323585E-3,7.6029724E-3,2.6678538E-2,-6.23549E-3,2.2263322E-2,-1.0291879E-2,1.95126E-2,2.8368381E-3,2.9623084E-2,3.3578206E-2,6.573039E-3,1.8607605E-2,-1.1788671E-2],"split_indices":[12,11,9,7,10,11,7,1,9,9,1,4,10,10,0,0,0,13,0,1,0,0,9,0,8,4,7,4,4,0,0,0,0,0,0,0,0,0,0,0,0,0,0,0,0],"split_type":[0,0,0,0,0,0,0,0,0,0,0,0,0,0,0,0,0,0,0,0,0,0,0,0,0,0,0,0,0,0,0,0,0,0,0,0,0,0,0,0,0,0,0,0,0],"sum_hessian":[1.1570564E2,2.8649221E1,8.705642E1,1.8702606E1,9.946615E0,1.3739449E1,7.331697E1,2.4821951E0,1.6220411E1,4.3617287E0,5.584886E0,5.3608527E0,8.378596E0,7.202947E1,1.2874987E0,1.3281169E0,1.1540782E0,1.4530274E1,1.6901376E0,2.6959603E0,1.6657685E0,1.5306623E0,4.054224E0,1.7946426E0,3.56621E0,2.2536943E0,6.124902E0,6.9901596E1,2.1278791E0,1.1614137E1,2.9161377E0,1.40605E0,1.2899103E0,1.2656488E0,2.7885752E0,1.8965952E0,1.6696148E0,1.0607784E0,1.1929159E0,1.0171744E0,5.1077275E0,6.863587E1,1.2657244E0,1.1227455E0,1.0051336E0],"tree_param":{"num_deleted":"0","num_feature":"14","num_nodes":"45","size_leaf_vector":"1"}},{"base_weights":[3.268834E-1,-1.5726213E0,8.7371737E-1,-2.3164449E0,-7.126011E-1,1.2656331E-1,1.0430892E0,-2.335331E-2,-7.311257E-2,-5.6114372E-2,-1.6879742E-1,-8.867492E-1,4.4084862E-1,1.066286E0,-7.075538E-3,7.72092E-1,-7.927771E-1,-6.251548E-2,2.6304612E-1,-4.5090216E-1,8.7181526E-1,3.6140463E-1,1.101675E0,4.9138935E-3,2.6996333E-2,-5.750438E-2,-2.9437956E-3,2.0380693E-2,-8.543307E-3,-3.5518464E-2,1.4661159E-2,9.54245E-3,3.0860731E-2,2.4066726E-2,-7.6859063E-3,3.34397E-2,3.8519108E-3],"categories":[],"categories_nodes":[],"categories_segments":[],"categories_sizes":[],"default_left":[0,0,0,0,0,0,0,0,0,0,0,0,0,0,0,0,0,0,0,0,0,0,0,0,0,0,0,0,0,0,0,0,0,0,0,0,0],"id":10,"left_children":[1,3,5,7,9,11,13,-1,-1,-1,15,17,19,21,-1,23,25,-1,27,29,31,33,35,-1,-1,-1,-1,-1,-1,-1,-1,-1,-1,-1,-1,-1,-1],"loss_changes":[1.2563396E2,1.5683952E1,1.170401E1,7.1650696E-1,8.506833E0,6.2578726E0,2.5094223E0,0E0,0E0,0E0,6.854792E0,7.0080047E0,6.0537214E0,1.471077E0,0E0,2.2155666E-1,5.189104E0,0E0,9.419338E-1,4.338037E0,5.650053E-1,1.5859627E0,7.522278E-1,0E0,0E0,0E0,0E0,0E0,0E0,0E0,0E0,0E0,0E0,0E0,0E0,0E0,0E0],"parents":[2147483647,0,0,1,1,2,2,3,3,4,4,5,5,6,6,10,10,11,11,12,12,13,13,15,15,16,16,18,18,19,19,20,20,21,21,22,22],"right_children":[2,4,6,8,10,12,14,-1,-1,-1,16,18,20,22,-1,24,26,-1,28,30,32,34,36,-1,-1,-1,-1,-1,-1,-1,-1,-1,-1,-1,-1,-1,-1],"split_conditions":[4E0,2E0,6.018076E-1,1.4139157E2,1E0,1E0,1.74E2,-2.335331E-2,-7.311257E-2,-5.6114372E-2,5.0903458E1,5.8021496E1,2.264391E2,1.1234949E2,-7.075538E-3,6E-1,2E0,-6.251548E-2,6.117699E1,5.7112915E1,1.4703372E2,5.6789722E1,3.94E2,4.9138935E-3,2.6996333E-2,-5.750438E-2,-2.9437956E-3,2.0380693E-2,-8.543307E-3,-3.5518464E-2,1.4661159E-2,9.54245E-3,3.0860731E-2,2.4066726E-2,-7.6859063E-3,3.34397E-2,3.8519108E-3],"split_indices":[2,10,9,7,1,1,7,0,0,0,0,0,4,3,0,9,2,0,0,0,7,0,4,0,0,0,0,0,0,0,0,0,0,0,0,0,0],"split_type":[0,0,0,0,0,0,0,0,0,0,0,0,0,0,0,0,0,0,0,0,0,0,0,0,0,0,0,0,0,0,0,0,0,0,0,0,0],"sum_hessian":[1.1862868E2,2.609794E1,9.253074E1,1.3086268E1,1.3011672E1,1.7422346E1,7.510839E1,1.4938856E0,1.1592382E1,3.3784933E0,9.633179E0,3.6932297E0,1.3729116E1,7.3933685E1,1.174702E0,3.7465086E0,5.88667E0,1.411398E0,2.2818315E0,4.458137E0,9.270979E0,4.0704536E0,6.9863235E1,1.0465323E0,2.6999762E0,1.5764219E0,4.3102484E0,1.160116E0,1.1217157E0,2.3582625E0,2.0998745E0,2.715063E0,6.555916E0,2.2007267E0,1.8697268E0,6.880031E1,1.0629246E0],"tree_param":{"num_deleted":"0","num_feature":"14","num_nodes":"37","size_leaf_vector":"1"}},{"base_weights":[3.603261E-1,-1.450323E0,9.607176E-1,-1.9872823E0,-1.9712798E-1,-2.3870489E-1,1.0884202E0,-2.2709675E0,-1.5874353E-1,-1.3224448E0,2.4671402E-2,-9.377488E-1,5.5600977E-1,5.5563223E-1,3.4090184E-2,-7.9302855E-2,-9.754709E-1,-2.0899694E-2,1.0847841E-2,-5.206987E-2,-3.3822428E-3,-2.90537E-1,-4.2095106E-2,-3.3301092E-3,2.5400281E-2,-8.697053E-3,8.445878E-1,5.9695216E-3,-5.14853E-2,-2.2086589E-2,7.6398305E-3,2.857635E-2,7.3689525E-3],"categories":[],"categories_nodes":[],"categories_segments":[],"categories_sizes":[],"default_left":[0,0,0,0,0,0,0,0,0,0,0,0,0,0,0,0,0,0,0,0,0,0,0,0,0,0,0,0,0,0,0,0,0],"id":11,"left_children":[1,3,5,7,9,11,13,15,17,19,-1,21,23,25,-1,-1,27,-1,-1,-1,-1,29,-1,-1,-1,-1,31,-1,-1,-1,-1,-1,-1],"loss_changes":[1.2116435E2,1.833813E1,1.3025093E1,9.689896E0,1.1939522E1,5.432163E0,1.2962265E0,5.4783936E0,1.2811835E0,2.2434816E0,0E0,1.1210823E0,1.0177196E0,2.2451344E0,0E0,0E0,4.9638257E0,0E0,0E0,0E0,0E0,1.0097668E0,0E0,0E0,0E0,0E0,1.7710304E-1,0E0,0E0,0E0,0E0,0E0,0E0],"parents":[2147483647,0,0,1,1,2,2,3,3,4,4,5,5,6,6,7,7,8,8,9,9,11,11,12,12,13,13,16,16,21,21,26,26],"right_children":[2,4,6,8,10,12,14,16,18,20,-1,22,24,26,-1,-1,28,-1,-1,-1,-1,30,-1,-1,-1,-1,32,-1,-1,-1,-1,-1,-1],"split_conditions":[6E0,1E0,4E0,1.6050792E0,1E0,1E0,4.146434E-1,5.8021496E1,1.2512624E2,2E0,2.4671402E-2,1.5953055E2,2E0,1.4703372E2,3.4090184E-2,-7.9302855E-2,4E-1,-2.0899694E-2,1.0847841E-2,-5.206987E-2,-3.3822428E-3,1.4018057E2,-4.2095106E-2,-3.3301092E-3,2.5400281E-2,-8.697053E-3,1.61E2,5.9695216E-3,-5.14853E-2,-2.2086589E-2,7.6398305E-3,2.857635E-2,7.3689525E-3],"split_indices":[12,11,2,9,1,11,9,0,3,10,0,7,10,7,0,0,9,0,0,0,0,3,0,0,0,0,7,0,0,0,0,0,0],"split_type":[0,0,0,0,0,0,0,0,0,0,0,0,0,0,0,0,0,0,0,0,0,0,0,0,0,0,0,0,0,0,0,0,0],"sum_hessian":[1.0917495E2,2.6833965E1,8.234098E1,1.8375011E1,8.458954E0,7.839618E0,7.4501366E1,1.5697668E1,2.6773427E0,3.8795872E0,4.579367E0,4.0751066E0,3.7645116E0,7.1871004E0,6.731426E1,1.1384187E1,4.313482E0,1.1498265E0,1.527516E0,2.5677104E0,1.3118768E0,2.3840747E0,1.6910323E0,1.3301724E0,2.434339E0,1.8297273E0,5.3573728E0,1.951138E0,2.3623438E0,1.1189754E0,1.2650992E0,4.039027E0,1.3183455E0],"tree_param":{"num_deleted":"0","num_feature":"14","num_nodes":"33","size_leaf_vector":"1"}},{"base_weights":[3.5465735E-1,-1.1721239E0,9.864283E-1,-1.6796124E0,-1.6399771E-1,-1.573527E-2,1.019847E0,-1.8708861E0,-2.7798263E-2,-1.1510456E0,6.590267E-1,5.090569E-1,1.0925591E0,-1.9902413E0,-3.1853863E-3,-8.051731E-3,6.533532E-3,-4.8535734E-2,-4.045205E-1,-7.7218274E-3,2.9630074E-2,6.848831E-1,-1.1573332E-2,6.145778E-1,3.3498E-2,-6.586594E-2,-1.788199E-2,2.063894E-2,-3.908636E-2,2.5311107E-2,-1.1602551E-2,2.5626063E-2,2.5698661E-3],"categories":[],"categories_nodes":[],"categories_segments":[],"categories_sizes":[],"default_left":[0,0,0,0,0,0,0,0,0,0,0,0,0,0,0,0,0,0,0,0,0,0,0,0,0,0,0,0,0,0,0,0,0],"id":12,"left_children":[1,3,5,7,9,-1,11,13,15,17,19,21,23,25,-1,-1,-1,-1,27,-1,-1,29,-1,31,-1,-1,-1,-1,-1,-1,-1,-1,-1],"loss_changes":[1.11111244E2,1.7027687E1,4.633606E0,7.0214653E0,1.0858506E1,0E0,2.405983E0,4.0116425E0,2.5570738E-1,1.4424458E0,2.4876144E0,2.1224992E0,1.0601044E-1,4.0500565E0,0E0,0E0,0E0,0E0,4.477034E0,0E0,0E0,2.0677109E0,0E0,6.2717676E-1,0E0,0E0,0E0,0E0,0E0,0E0,0E0,0E0,0E0],"parents":[2147483647,0,0,1,1,2,2,3,3,4,4,6,6,7,7,8,8,9,9,10,10,11,11,12,12,13,13,18,18,21,21,23,23],"right_children":[2,4,6,8,10,-1,12,14,16,18,20,22,24,26,-1,-1,-1,-1,28,-1,-1,30,-1,32,-1,-1,-1,-1,-1,-1,-1,-1,-1],"split_conditions":[7E0,1E0,1.089765E2,1.6050792E0,2E0,-1.573527E-2,2E0,1.5683517E2,2.264391E2,1E0,5.5680126E-1,1.4154816E2,4.146434E-1,5.101808E-1,-3.1853863E-3,-8.051731E-3,6.533532E-3,-4.8535734E-2,1.1234949E2,-7.7218274E-3,2.9630074E-2,5.786687E-1,-1.1573332E-2,2E-1,3.3498E-2,-6.586594E-2,-1.788199E-2,2.063894E-2,-3.908636E-2,2.5311107E-2,-1.1602551E-2,2.5626063E-2,2.5698661E-3],"split_indices":[12,11,3,9,10,0,10,3,4,1,9,3,9,13,0,0,0,0,3,0,0,13,0,9,0,0,0,0,0,0,0,0,0],"split_type":[0,0,0,0,0,0,0,0,0,0,0,0,0,0,0,0,0,0,0,0,0,0,0,0,0,0,0,0,0,0,0,0,0],"sum_hessian":[1.1299311E2,3.28208E1,8.017231E1,2.1388037E1,1.1432766E1,1.4168795E0,7.875543E1,1.9049547E1,2.3384888E0,5.017161E0,6.4156046E0,1.0810989E1,6.794444E1,1.7723053E1,1.3264941E0,1.1343312E0,1.2041577E0,2.3687587E0,2.6484025E0,1.750665E0,4.66494E0,9.231681E0,1.5793085E0,4.5258293E0,6.341861E1,1.4947297E1,2.7757564E0,1.3007591E0,1.3476434E0,8.2253475E0,1.0063336E0,2.6914606E0,1.8343686E0],"tree_param":{"num_deleted":"0","num_feature":"14","num_nodes":"33","size_leaf_vector":"1"}},{"base_weights":[3.1096143E-1,-1.4627213E0,9.692656E-1,-5.993337E-2,-5.204876E-1,-3.0077094E-1,3.3103194E-2,-9.19527E-1,2.4787733E-2,3.7092888E-1,-6.805595E-1,-1.6929531E0,-1.833089E-1,2.2691717E-2,-9.941625E-3,-4.129743E-2,-1.5165108E-1,-1.9887626E-2,-6.1121833E-2,-3.186045E-2,1.4266476E-2,-1.8209757E-2,1.1315514E-2],"categories":[],"categories_nodes":[],"categories_segments":[],"categories_sizes":[],"default_left":[0,0,0,0,0,0,0,0,0,0,0,0,0,0,0,0,0,0,0,0,0,0,0],"id":13,"left_children":[1,3,5,-1,7,9,-1,11,-1,13,15,17,19,-1,-1,-1,21,-1,-1,-1,-1,-1,-1],"loss_changes":[1.2935393E2,1.4113678E1,1.4051666E1,0E0,7.336959E0,2.4154296E0,0E0,5.335162E0,0E0,1.254941E0,1.915041E0,3.217268E-1,4.0950203E0,0E0,0E0,0E0,1.2889264E0,0E0,0E0,0E0,0E0,0E0,0E0],"parents":[2147483647,0,0,1,1,2,2,4,4,5,5,7,7,9,9,10,10,11,11,12,12,16,16],"right_children":[2,4,6,-1,8,10,-1,12,-1,14,16,18,20,-1,-1,-1,22,-1,-1,-1,-1,-1,-1],"split_conditions":[7E0,4E0,4E0,-5.993337E-2,1.6050792E0,4.8098016E-1,3.3103194E-2,1E0,2.4787733E-2,1.71E2,1.20297386E2,4.6216764E-2,1E0,2.2691717E-2,-9.941625E-3,-4.129743E-2,3E0,-1.9887626E-2,-6.1121833E-2,-3.186045E-2,1.4266476E-2,-1.8209757E-2,1.1315514E-2],"split_indices":[12,2,2,0,9,13,0,6,0,7,3,9,1,0,0,0,2,0,0,0,0,0,0],"split_type":[0,0,0,0,0,0,0,0,0,0,0,0,0,0,0,0,0,0,0,0,0,0,0],"sum_hessian":[1.0856978E2,2.9057526E1,7.951225E1,1.7818712E1,1.1238812E1,7.4788604E0,7.2033394E1,8.914637E0,2.3241758E0,2.7097263E0,4.7691345E0,3.7137105E0,5.200926E0,1.6998053E0,1.009921E0,1.3672317E0,3.4019027E0,1.663559E0,2.0501516E0,1.9664321E0,3.2344937E0,1.7485573E0,1.6533453E0],"tree_param":{"num_deleted":"0","num_feature":"14","num_nodes":"23","size_leaf_vector":"1"}},{"base_weights":[2.4141325E-1,-1.2865438E0,8.733952E-1,-1.6461282E0,-3.5055894E-1,-3.7354982E-1,1.0269383E0,-1.7865338E0,9.872648E-3,-1.4313715E0,5.7031727E-1,-1.0972155E0,5.5086064E-1,3.543431E-1,1.1045332E0,-1.9168149E0,6.4550753E-4,-5.2240327E-2,-5.3498894E-3,2.7866729E-2,-2.8090843E-3,-1.8336424E-1,-5.6014158E-2,2.3629654E-2,4.84931E-3,-4.4965523E-1,8.007853E-1,1.2770272E-2,3.3571523E-2,-6.1115913E-2,-1.5127957E-2,1.939438E-2,-2.3712406E-2,-3.490618E-2,1.0003612E-2,2.7858997E-2,2.6406152E-3],"categories":[],"categories_nodes":[],"categories_segments":[],"categories_sizes":[],"default_left":[0,0,0,0,0,0,0,0,0,0,0,0,0,0,0,0,0,0,0,0,0,0,0,0,0,0,0,0,0,0,0,0,0,0,0,0,0],"id":14,"left_children":[1,3,5,7,9,11,13,15,-1,17,19,21,23,25,27,29,-1,-1,-1,-1,-1,31,-1,-1,-1,33,35,-1,-1,-1,-1,-1,-1,-1,-1,-1,-1],"loss_changes":[1.06625175E2,1.0318123E1,1.5295216E1,6.9988174E0,1.1023396E1,6.807108E0,3.2416458E0,5.1616745E0,0E0,1.6326284E0,1.5755358E0,3.552023E0,3.0927324E-1,3.47298E0,1.3407135E-1,2.4225693E0,0E0,0E0,0E0,0E0,0E0,2.3445716E0,0E0,0E0,0E0,2.477004E0,4.5916224E-1,0E0,0E0,0E0,0E0,0E0,0E0,0E0,0E0,0E0,0E0],"parents":[2147483647,0,0,1,1,2,2,3,3,4,4,5,5,6,6,7,7,9,9,10,10,11,11,12,12,13,13,14,14,15,15,21,21,25,25,26,26],"right_children":[2,4,6,8,10,12,14,16,-1,18,20,22,24,26,28,30,-1,-1,-1,-1,-1,32,-1,-1,-1,34,36,-1,-1,-1,-1,-1,-1,-1,-1,-1,-1],"split_conditions":[6E0,1E0,4E0,1.5683517E2,1E0,1E0,4.146434E-1,3.2618356E2,9.872648E-3,1.6216937E2,2.4966724E2,1.5953055E2,3E0,2.3372711E2,7E0,1.6050792E0,6.4550753E-4,-5.2240327E-2,-5.3498894E-3,2.7866729E-2,-2.8090843E-3,5.7112915E1,-5.6014158E-2,2.3629654E-2,4.84931E-3,5.101808E-1,1.352091E-1,1.2770272E-2,3.3571523E-2,-6.1115913E-2,-1.5127957E-2,1.939438E-2,-2.3712406E-2,-3.490618E-2,1.0003612E-2,2.7858997E-2,2.6406152E-3],"split_indices":[12,11,2,3,1,11,9,4,0,7,4,7,2,4,12,9,0,0,0,0,0,0,0,0,0,13,9,0,0,0,0,0,0,0,0,0,0],"split_type":[0,0,0,0,0,0,0,0,0,0,0,0,0,0,0,0,0,0,0,0,0,0,0,0,0,0,0,0,0,0,0,0,0,0,0,0,0],"sum_hessian":[1.0825538E2,3.1371666E1,7.688371E1,2.2116348E1,9.255317E0,8.272089E0,6.8611626E1,2.0737759E1,1.3785908E0,4.0028734E0,5.252444E0,4.5349846E0,3.7371042E0,7.6725173E0,6.093911E1,1.92878E1,1.4499589E0,2.8966234E0,1.1062498E0,3.1514475E0,2.1009963E0,2.6398292E0,1.8951554E0,1.6870395E0,2.0500646E0,2.7367337E0,4.935784E0,1.9107692E0,5.902834E1,1.7365631E1,1.9221691E0,1.087817E0,1.5520122E0,1.1775141E0,1.5592195E0,3.9283063E0,1.0074774E0],"tree_param":{"num_deleted":"0","num_feature":"14","num_nodes":"37","size_leaf_vector":"1"}},{"base_weights":[2.9935908E-1,-1.2857524E0,8.489141E-1,-1.6436609E0,-3.6815393E-1,1.17258504E-1,1.0229133E0,-1.8362089E0,1.1652214E-2,-1.2209296E0,6.0263664E-1,-5.603024E-1,7.32636E-1,3.1849027E-2,-4.4484534E-3,-6.536909E-2,-9.941374E-1,-4.7271978E-2,-7.872648E-3,2.7545309E-2,-7.21702E-3,-1.2946678E0,4.7567502E-1,9.1336167E-1,-1.15794195E-2,-5.044939E-2,8.444829E-4,7.0835506E-3,-5.268592E-2,2.5277024E-2,-9.9523915E-3,3.017538E-2,4.539791E-3],"categories":[],"categories_nodes":[],"categories_segments":[],"categories_sizes":[],"default_left":[0,0,0,0,0,0,0,0,0,0,0,0,0,0,0,0,0,0,0,0,0,0,0,0,0,0,0,0,0,0,0,0,0],"id":15,"left_children":[1,3,5,7,9,11,13,15,-1,17,19,21,23,-1,-1,-1,25,-1,-1,-1,-1,27,29,31,-1,-1,-1,-1,-1,-1,-1,-1,-1],"loss_changes":[9.715869E1,8.849651E0,1.0382019E1,8.703781E0,8.490279E0,7.4897594E0,3.1738434E0,3.2684402E0,0E0,1.3947029E0,1.5644734E0,7.194803E0,2.238894E0,0E0,0E0,0E0,5.168266E0,0E0,0E0,0E0,0E0,4.1797113E0,1.5588057E0,4.348626E-1,0E0,0E0,0E0,0E0,0E0,0E0,0E0,0E0,0E0],"parents":[2147483647,0,0,1,1,2,2,3,3,4,4,5,5,6,6,7,7,9,9,10,10,11,11,12,12,16,16,21,21,22,22,23,23],"right_children":[2,4,6,8,10,12,14,16,-1,18,20,22,24,-1,-1,-1,26,-1,-1,-1,-1,28,30,32,-1,-1,-1,-1,-1,-1,-1,-1,-1],"split_conditions":[4E0,1E0,6.018076E-1,2.6102765E0,2E0,1E0,1.706474E2,2.5823764E2,1.1652214E-2,1.6841608E2,2.56423E2,5.7112915E1,5.80233E-1,3.1849027E-2,-4.4484534E-3,-6.536909E-2,5.602468E1,-4.7271978E-2,-7.872648E-3,2.7545309E-2,-7.21702E-3,4.2694637E1,4.6216764E-2,3.02E2,-1.15794195E-2,-5.044939E-2,8.444829E-4,7.0835506E-3,-5.268592E-2,2.5277024E-2,-9.9523915E-3,3.017538E-2,4.539791E-3],"split_indices":[2,11,9,9,10,11,7,4,0,7,4,0,13,0,0,0,0,0,0,0,0,0,9,4,0,0,0,0,0,0,0,0,0],"split_type":[0,0,0,0,0,0,0,0,0,0,0,0,0,0,0,0,0,0,0,0,0,0,0,0,0,0,0,0,0,0,0,0,0],"sum_hessian":[1.0928188E2,2.7788982E1,8.1492905E1,1.9422132E1,8.36685E0,1.5978451E1,6.551445E1,1.7829123E1,1.5930096E0,4.3169913E0,4.0498586E0,7.6475835E0,8.330868E0,6.350834E1,2.0061126E0,1.154298E1,6.2861423E0,2.6807408E0,1.6362504E0,2.8823304E0,1.167528E0,4.3291235E0,3.31846E0,7.3300943E0,1.000773E0,3.3728478E0,2.9132943E0,1.1160024E0,3.2131212E0,2.25174E0,1.0667199E0,6.2514424E0,1.0786521E0],"tree_param":{"num_deleted":"0","num_feature":"14","num_nodes":"33","size_leaf_vector":"1"}},{"base_weights":[2.5568128E-1,-1.165718E0,8.6608094E-1,-1.4880601E0,-3.0071595E-1,6.0168322E-2,9.9740636E-1,-1.8385174E0,-5.705274E-1,-1.3002727E0,4.344731E-1,-5.980722E-1,5.0393605E-1,7.376662E-2,1.0377642E0,-7.837433E-1,-5.984678E-2,-1.2006096E0,2.8288093E-1,-1.1574857E-2,-5.5475164E-2,-8.111882E-3,2.222608E-2,-5.2389394E-2,5.106348E-1,2.7598286E-2,-8.335356E-2,-1.102076E-2,1.8088222E-2,1.0518836E0,5.1993295E-3,-4.565658E-2,9.561642E-3,-8.623063E-3,-4.1477345E-2,-1.2916285E-2,2.5306601E-2,3.7340464E-3,1.9303536E-2,-3.9562143E-2,2.3478262E-2,3.1964473E-2,5.590316E-3],"categories":[],"categories_nodes":[],"categories_segments":[],"categories_sizes":[],"default_left":[0,0,0,0,0,0,0,0,0,0,0,0,0,0,0,0,0,0,0,0,0,0,0,0,0,0,0,0,0,0,0,0,0,0,0,0,0,0,0,0,0,0,0],"id":16,"left_children":[1,3,5,7,9,11,13,15,17,19,21,23,25,27,29,31,-1,33,35,-1,-1,-1,-1,-1,37,-1,39,-1,-1,41,-1,-1,-1,-1,-1,-1,-1,-1,-1,-1,-1,-1,-1],"loss_changes":[9.198239E1,8.454494E0,7.7641296E0,6.348732E0,7.8553247E0,3.6380427E0,2.2906227E0,1.10812E0,4.5383854E0,1.5226126E0,1.5967547E0,7.329756E0,1.8762267E0,1.09339E0,5.594101E-1,3.5272765E0,0E0,3.8071346E-1,2.013496E0,0E0,0E0,0E0,0E0,0E0,9.1555536E-2,0E0,5.280225E0,0E0,0E0,5.029068E-1,0E0,0E0,0E0,0E0,0E0,0E0,0E0,0E0,0E0,0E0,0E0,0E0,0E0],"parents":[2147483647,0,0,1,1,2,2,3,3,4,4,5,5,6,6,7,7,8,8,9,9,10,10,11,11,12,12,13,13,14,14,15,15,17,17,18,18,24,24,26,26,29,29],"right_children":[2,4,6,8,10,12,14,16,18,20,22,24,26,28,30,32,-1,34,36,-1,-1,-1,-1,-1,38,-1,40,-1,-1,42,-1,-1,-1,-1,-1,-1,-1,-1,-1,-1,-1,-1,-1],"split_conditions":[6E0,1E0,2E0,5.8021496E1,1E0,2.3372711E2,7E0,1.9431952E2,2.4551895E2,6.2264957E1,2E0,5.7112915E1,2.62E2,2E0,1.72E2,1E0,-5.984678E-2,2.0834099E2,1E0,-1.1574857E-2,-5.5475164E-2,-8.111882E-3,2.222608E-2,-5.2389394E-2,1.3643753E2,2.7598286E-2,1E0,-1.102076E-2,1.8088222E-2,1.706474E2,5.1993295E-3,-4.565658E-2,9.561642E-3,-8.623063E-3,-4.1477345E-2,-1.2916285E-2,2.5306601E-2,3.7340464E-3,1.9303536E-2,-3.9562143E-2,2.3478262E-2,3.1964473E-2,5.590316E-3],"split_indices":[12,11,10,0,1,4,12,4,4,0,10,0,4,11,3,6,0,4,1,0,0,0,0,0,3,0,6,0,0,7,0,0,0,0,0,0,0,0,0,0,0,0,0],"split_type":[0,0,0,0,0,0,0,0,0,0,0,0,0,0,0,0,0,0,0,0,0,0,0,0,0,0,0,0,0,0,0,0,0,0,0,0,0,0,0,0,0,0,0],"sum_hessian":[1.0385307E2,3.0926567E1,7.2926506E1,2.2005821E1,8.920745E0,1.0422751E1,6.2503757E1,1.519734E1,6.808481E0,3.454887E0,5.465858E0,4.057117E0,6.3656344E0,2.73511E0,5.9768646E1,2.738397E0,1.2458943E1,3.6826751E0,3.125806E0,1.9346883E0,1.5201986E0,1.6916612E0,3.7741969E0,1.7105168E0,2.3466E0,3.394627E0,2.9710073E0,1.6584209E0,1.0766891E0,5.8594776E1,1.1738726E0,1.4123406E0,1.3260561E0,1.0405359E0,2.642139E0,1.4776615E0,1.6481446E0,1.0962819E0,1.2503182E0,1.008879E0,1.9621283E0,5.7460976E1,1.133801E0],"tree_param":{"num_deleted":"0","num_feature":"14","num_nodes":"43","size_leaf_vector":"1"}},{"base_weights":[3.4618124E-1,-1.0452174E0,9.1393584E-1,-1.6405286E0,-5.828764E-1,2.1182758E-1,1.0638956E0,-1.7890348E0,-2.6549492E-3,-1.7141844E-1,-1.3899579E0,-1.0800265E0,6.3866955E-1,4.736779E-3,1.0769781E0,-1.9574224E0,-5.79818E-3,9.849726E-2,-4.045702E-2,-4.8525527E-2,-5.074759E-3,-5.3496204E-2,6.597173E-3,-2.2847392E-2,9.470493E-1,1.0921824E0,8.179421E-3,-6.973621E-2,-2.5703363E-2,2.0890094E-2,-5.7178866E-3,5.4711513E-3,3.099085E-2,1.1951883E-2,3.324323E-2],"categories":[],"categories_nodes":[],"categories_segments":[],"categories_sizes":[],"default_left":[0,0,0,0,0,0,0,0,0,0,0,0,0,0,0,0,0,0,0,0,0,0,0,0,0,0,0,0,0,0,0,0,0,0,0],"id":17,"left_children":[1,3,5,7,9,11,13,15,-1,17,19,21,23,-1,25,27,-1,29,-1,-1,-1,-1,-1,-1,31,33,-1,-1,-1,-1,-1,-1,-1,-1,-1],"loss_changes":[8.2994835E1,7.455593E0,7.5963783E0,2.79393E0,5.9893427E0,8.587788E0,5.525665E-1,2.748932E0,0E0,4.4417906E0,1.4464579E0,3.983378E0,5.6414213E0,0E0,4.3507385E-1,2.217846E0,0E0,2.2004726E0,0E0,0E0,0E0,0E0,0E0,0E0,4.548359E-1,2.0468903E-1,0E0,0E0,0E0,0E0,0E0,0E0,0E0,0E0,0E0],"parents":[2147483647,0,0,1,1,2,2,3,3,4,4,5,5,6,6,7,7,9,9,10,10,11,11,12,12,14,14,15,15,17,17,24,24,25,25],"right_children":[2,4,6,8,10,12,14,16,-1,18,20,22,24,-1,26,28,-1,30,-1,-1,-1,-1,-1,-1,32,34,-1,-1,-1,-1,-1,-1,-1,-1,-1],"split_conditions":[6E0,1E0,6.018076E-1,1E0,1.7E2,2.264391E2,3E0,1.5510547E2,-2.6549492E-3,1E0,5.125308E1,5.7112915E1,1.20297386E2,4.736779E-3,3.4550653E2,1.6841608E2,-5.79818E-3,1.4081151E2,-4.045702E-2,-4.8525527E-2,-5.074759E-3,-5.3496204E-2,6.597173E-3,-2.2847392E-2,1.2469914E2,1.1018708E2,8.179421E-3,-6.973621E-2,-2.5703363E-2,2.0890094E-2,-5.7178866E-3,5.4711513E-3,3.099085E-2,1.1951883E-2,3.324323E-2],"split_indices":[12,1,9,5,7,4,2,3,0,5,0,0,3,0,4,7,0,7,0,0,0,0,0,0,7,3,0,0,0,0,0,0,0,0,0],"split_type":[0,0,0,0,0,0,0,0,0,0,0,0,0,0,0,0,0,0,0,0,0,0,0,0,0,0,0,0,0,0,0,0,0,0,0],"sum_hessian":[1.02851105E2,2.956212E1,7.328899E1,1.1808792E1,1.7753328E1,1.3323098E1,5.996589E1,1.063817E1,1.1706218E0,1.2561665E1,5.1916647E0,2.9287744E0,1.0394324E1,1.0395927E0,5.8926296E1,9.417755E0,1.2204151E0,1.0963989E1,1.5976748E0,4.1020646E0,1.0895998E0,1.6593844E0,1.2693901E0,1.6107649E0,8.783559E0,5.7481834E1,1.4444587E0,6.228324E0,3.1894317E0,3.1145256E0,7.849464E0,1.2032503E0,7.580309E0,1.873634E0,5.56082E1],"tree_param":{"num_deleted":"0","num_feature":"14","num_nodes":"35","size_leaf_vector":"1"}},{"base_weights":[2.4465224E-1,-1.3294153E0,8.1342435E-1,-1.7702124E0,-3.4373397E-1,-3.267359E-1,1.0090067E0,-5.7042472E-2,-9.3414193E-1,-1.3260527E0,5.3593713E-1,-9.873606E-1,3.3733916E-1,2.727865E-1,1.046664E0,-4.8502825E-2,-1.6070406E-1,-4.8304234E-2,-1.4495421E-2,2.8037747E-2,-7.8544635E-3,-5.1062457E-2,-3.1290954E-1,-2.58178E-1,2.6018176E-2,-1.3534969E-2,2.3542203E-2,6.6527325E-1,3.257534E-2,-1.4162724E-2,6.8787294E-3,7.791376E-3,-2.8833121E-2,2.254867E-2,-3.347563E-2,6.95408E-3,2.7462676E-2],"categories":[],"categories_nodes":[],"categories_segments":[],"categories_sizes":[],"default_left":[0,0,0,0,0,0,0,0,0,0,0,0,0,0,0,0,0,0,0,0,0,0,0,0,0,0,0,0,0,0,0,0,0,0,0,0,0],"id":18,"left_children":[1,3,5,7,9,11,13,-1,15,17,19,21,23,25,27,-1,29,-1,-1,-1,-1,-1,31,33,-1,-1,-1,35,-1,-1,-1,-1,-1,-1,-1,-1,-1],"loss_changes":[9.608334E1,1.179401E1,1.7850052E1,3.610611E-1,9.405213E0,5.7113895E0,1.5805435E0,0E0,2.1733174E0,4.291668E-1,2.1593397E0,2.5526748E0,2.388552E0,2.0692358E0,2.292099E-1,0E0,5.054634E-1,0E0,0E0,0E0,0E0,0E0,1.9266381E0,4.3033085E0,0E0,0E0,0E0,7.1103907E-1,0E0,0E0,0E0,0E0,0E0,0E0,0E0,0E0,0E0],"parents":[2147483647,0,0,1,1,2,2,3,3,4,4,5,5,6,6,8,8,9,9,10,10,11,11,12,12,13,13,14,14,16,16,22,22,23,23,27,27],"right_children":[2,4,6,8,10,12,14,-1,16,18,20,22,24,26,28,-1,30,-1,-1,-1,-1,-1,32,34,-1,-1,-1,36,-1,-1,-1,-1,-1,-1,-1,-1,-1],"split_conditions":[4E0,1E0,6E0,2.7567926E2,2E0,1E0,1.1018708E2,-5.7042472E-2,1E0,2.78E2,2.37E2,5.8021496E1,1E0,1E0,2E0,-4.8502825E-2,2E0,-4.8304234E-2,-1.4495421E-2,2.8037747E-2,-7.8544635E-3,-5.1062457E-2,6.2264957E1,1.9431952E2,2.6018176E-2,-1.3534969E-2,2.3542203E-2,2.264391E2,3.257534E-2,-1.4162724E-2,6.8787294E-3,7.791376E-3,-2.8833121E-2,2.254867E-2,-3.347563E-2,6.95408E-3,2.7462676E-2],"split_indices":[2,11,12,4,10,1,3,0,1,4,4,0,11,6,10,0,10,0,0,0,0,0,0,4,0,0,0,4,0,0,0,0,0,0,0,0,0],"split_type":[0,0,0,0,0,0,0,0,0,0,0,0,0,0,0,0,0,0,0,0,0,0,0,0,0,0,0,0,0,0,0,0,0,0,0,0,0],"sum_hessian":[1.0511357E2,2.7545237E1,7.756834E1,1.8483486E1,9.06175E0,1.12595415E1,6.630879E1,1.487495E1,3.608535E0,4.041364E0,5.020386E0,5.40039E0,5.8591514E0,3.627765E0,6.2681026E1,1.3376229E0,2.2709124E0,2.341771E0,1.6995933E0,3.23317E0,1.7872164E0,1.8821766E0,3.5182135E0,3.000323E0,2.8588283E0,1.5519267E0,2.075838E0,7.5143986E0,5.516663E1,1.1456653E0,1.125247E0,2.1862159E0,1.3319976E0,1.4347489E0,1.5655742E0,3.4546592E0,4.059739E0],"tree_param":{"num_deleted":"0","num_feature":"14","num_nodes":"37","size_leaf_vector":"1"}},{"base_weights":[2.3771285E-1,-1.053073E0,8.3191824E-1,-1.6743851E0,-5.0975394E-1,-3.9062268E-1,9.827655E-1,-1.8584421E0,-6.328041E-3,-1.0527357E0,4.437395E-1,-4.9035016E-2,1.0442783E-2,2.2314999E-1,1.0219146E0,-5.9245747E-2,-1.3818083E-2,-1.3199102E0,-1.4110842E-1,-3.6922854E-1,8.119432E-1,6.613354E-1,-4.046007E-2,-1.3525883E-2,2.2532E-2,8.416163E-3,1.0350922E0,-4.6744414E-2,7.0697945E-3,-2.32558E-2,2.2762673E-2,-2.1663094E-2,5.0623775E-3,2.8132051E-2,4.9700337E-3,-1.7042086E-3,2.771824E-2,3.148226E-2,8.760322E-3],"categories":[],"categories_nodes":[],"categories_segments":[],"categories_sizes":[],"default_left":[0,0,0,0,0,0,0,0,0,0,0,0,0,0,0,0,0,0,0,0,0,0,0,0,0,0,0,0,0,0,0,0,0,0,0,0,0,0,0],"id":19,"left_children":[1,3,5,7,9,11,13,15,-1,17,19,-1,21,23,25,-1,-1,27,29,31,33,35,-1,-1,-1,-1,37,-1,-1,-1,-1,-1,-1,-1,-1,-1,-1,-1,-1],"loss_changes":[7.9698906E1,1.0231323E1,1.3464893E1,3.6164093E0,1.0281103E1,4.26072E0,1.6581116E0,1.2206497E0,0E0,2.8276978E0,2.5691917E0,0E0,7.46128E0,1.8999659E0,2.9615402E-1,0E0,0E0,3.86932E0,2.827378E0,7.009958E-1,2.9426932E-1,1.1259849E0,0E0,0E0,0E0,0E0,3.171463E-1,0E0,0E0,0E0,0E0,0E0,0E0,0E0,0E0,0E0,0E0,0E0,0E0],"parents":[2147483647,0,0,1,1,2,2,3,3,4,4,5,5,6,6,7,7,9,9,10,10,12,12,13,13,14,14,17,17,18,18,19,19,20,20,21,21,26,26],"right_children":[2,4,6,8,10,12,14,16,-1,18,20,-1,22,24,26,-1,-1,28,30,32,34,36,-1,-1,-1,-1,38,-1,-1,-1,-1,-1,-1,-1,-1,-1,-1,-1,-1],"split_conditions":[6E0,1E0,4E0,1.4606563E2,4E0,2E2,1.1018708E2,2E0,-6.328041E-3,5.602468E1,1E0,-4.9035016E-2,2.6936398E2,1E0,7E0,-5.9245747E-2,-1.3818083E-2,1.4018057E2,2.4551895E2,4.314293E1,2.88E2,1.20297386E2,-4.046007E-2,-1.3525883E-2,2.2532E-2,8.416163E-3,1.6769566E2,-4.6744414E-2,7.0697945E-3,-2.32558E-2,2.2762673E-2,-2.1663094E-2,5.0623775E-3,2.8132051E-2,4.9700337E-3,-1.7042086E-3,2.771824E-2,3.148226E-2,8.760322E-3],"split_indices":[12,1,2,3,2,4,3,11,0,0,6,0,4,6,12,0,0,3,4,0,4,3,0,0,0,0,7,0,0,0,0,0,0,0,0,0,0,0,0],"split_type":[0,0,0,0,0,0,0,0,0,0,0,0,0,0,0,0,0,0,0,0,0,0,0,0,0,0,0,0,0,0,0,0,0,0,0,0,0,0,0],"sum_hessian":[1.0176878E2,3.1837122E1,6.993166E1,1.3881348E1,1.7955774E1,7.506417E0,6.2425247E1,1.2090793E1,1.7905546E0,1.1374375E1,6.5813985E0,1.0803589E0,6.426058E0,3.3879673E0,5.903728E1,1.0780193E1,1.3105998E0,8.450027E0,2.9243479E0,2.050735E0,4.5306635E0,4.6922817E0,1.733776E0,1.5521863E0,1.835781E0,1.420296E0,5.7616985E1,7.326336E0,1.1236918E0,1.7967916E0,1.1275564E0,1.0317285E0,1.0190065E0,3.4149828E0,1.1156806E0,1.4662478E0,3.226034E0,5.6123455E1,1.4935318E0],"tree_param":{"num_deleted":"0","num_feature":"14","num_nodes":"39","size_leaf_vector":"1"}},{"base_weights":[2.2806165E-1,-1.2649994E0,7.7869606E-1,-4.9063936E-2,-3.4914702E-1,-4.0243766E-1,1.0390521E0,6.3724625E-1,-1.2845198E0,-8.9835745E-1,3.9253864E-1,5.8771014E-1,3.2856487E-2,-6.8629603E-3,2.8043946E-2,-1.1543502E-2,-5.0569236E-2,-1.6165172E0,-1.5389153E-1,-2.192009E-2,7.729342E-1,5.4045457E-2,2.7973441E-2,-5.8848675E-2,-7.1450146E-3,-2.5684336E-2,2.3841813E-2,3.993114E-3,2.723335E-2,-3.6079053E-2,2.437503E-2],"categories":[],"categories_nodes":[],"categories_segments":[],"categories_sizes":[],"default_left":[0,0,0,0,0,0,0,0,0,0,0,0,0,0,0,0,0,0,0,0,0,0,0,0,0,0,0,0,0,0,0],"id":20,"left_children":[1,3,5,-1,7,9,11,13,15,17,19,21,-1,-1,-1,-1,-1,23,25,-1,27,29,-1,-1,-1,-1,-1,-1,-1,-1,-1],"loss_changes":[8.5552605E1,8.961613E0,2.3718025E1,0E0,9.457396E0,6.03203E0,9.3717194E-1,1.5604205E0,1.2055149E0,4.6569366E0,3.226669E0,1.6163199E0,0E0,0E0,0E0,0E0,0E0,1.7043209E0,4.4179583E0,0E0,3.226304E-1,5.3777866E0,0E0,0E0,0E0,0E0,0E0,0E0,0E0,0E0,0E0],"parents":[2147483647,0,0,1,1,2,2,4,4,5,5,6,6,7,7,8,8,9,9,10,10,11,11,17,17,18,18,20,20,21,21],"right_children":[2,4,6,-1,8,10,12,14,16,18,20,22,-1,-1,-1,-1,-1,24,26,-1,28,30,-1,-1,-1,-1,-1,-1,-1,-1,-1],"split_conditions":[4E0,1E0,7E0,-4.9063936E-2,2.37E2,1E0,2E0,2.26E2,3E0,1E0,2E0,2.3372711E2,3.2856487E-2,-6.8629603E-3,2.8043946E-2,-1.1543502E-2,-5.0569236E-2,1.3037663E2,5.7112915E1,-2.192009E-2,1.2204584E2,1.3202351E2,2.7973441E-2,-5.8848675E-2,-7.1450146E-3,-2.5684336E-2,2.3841813E-2,3.993114E-3,2.723335E-2,-3.6079053E-2,2.437503E-2],"split_indices":[2,11,12,0,4,8,10,4,2,1,10,4,0,0,0,0,0,3,0,0,3,3,0,0,0,0,0,0,0,0,0],"split_type":[0,0,0,0,0,0,0,0,0,0,0,0,0,0,0,0,0,0,0,0,0,0,0,0,0,0,0,0,0,0,0],"sum_hessian":[1.0186388E2,2.7095715E1,7.476816E1,1.8732594E1,8.363121E0,1.340576E1,6.13624E1,4.225677E0,4.137444E0,8.175623E0,5.2301364E0,8.059488E0,5.330291E1,1.1397275E0,3.0859494E0,1.8799306E0,2.2575135E0,3.5651102E0,4.610513E0,1.0902116E0,4.1399245E0,3.6170142E0,4.442474E0,2.5127988E0,1.0523112E0,2.705294E0,1.9052192E0,1.0665027E0,3.073422E0,1.1409477E0,2.4760664E0],"tree_param":{"num_deleted":"0","num_feature":"14","num_nodes":"31","size_leaf_vector":"1"}},{"base_weights":[2.0098865E-1,-1.0752631E0,8.7320906E-1,-1.5305755E0,2.9521273E-2,-1.2029382E-1,1.0013125E0,-1.6396061E0,-7.561907E-3,-9.53173E-1,5.853086E-1,1.8114237E-2,-5.067482E-1,5.155478E-1,3.215216E-2,-8.5968584E-1,-1.725772E0,-4.8837494E-2,4.5825765E-3,-2.966889E-3,8.2809126E-1,1.052875E-2,-8.547732E-1,-3.217078E-2,2.7917325E-2,-3.8457483E-2,-2.5851115E-5,-5.5768684E-2,-2.770403E-2,2.819625E-2,6.8130423E-3,-3.4452848E-2,-2.7237427E-3,1.7125823E-2,-2.7979678E-2],"categories":[],"categories_nodes":[],"categories_segments":[],"categories_sizes":[],"default_left":[0,0,0,0,0,0,0,0,0,0,0,0,0,0,0,0,0,0,0,0,0,0,0,0,0,0,0,0,0,0,0,0,0,0,0],"id":21,"left_children":[1,3,5,7,9,11,13,15,-1,17,19,-1,21,23,-1,25,27,-1,-1,-1,29,-1,31,33,-1,-1,-1,-1,-1,-1,-1,-1,-1,-1,-1],"loss_changes":[8.986673E1,1.8259071E1,8.8316345E0,3.1636848E0,6.8653917E0,2.7433863E0,1.5252724E0,9.3105316E-2,0E0,3.6457887E0,1.4101596E0,0E0,2.1575549E0,2.216165E0,0E0,1.567904E0,4.348755E-1,0E0,0E0,0E0,1.9021654E-1,0E0,9.541576E-1,3.308635E0,0E0,0E0,0E0,0E0,0E0,0E0,0E0,0E0,0E0,0E0,0E0],"parents":[2147483647,0,0,1,1,2,2,3,3,4,4,5,5,6,6,7,7,9,9,10,10,12,12,13,13,15,15,16,16,20,20,22,22,23,23],"right_children":[2,4,6,8,10,12,14,16,-1,18,20,-1,22,24,-1,26,28,-1,-1,-1,30,-1,32,34,-1,-1,-1,-1,-1,-1,-1,-1,-1,-1,-1],"split_conditions":[7E0,1E0,4E0,3.2618356E2,1E0,4.8098016E-1,2E0,1.9184937E2,-7.561907E-3,2E0,2E0,1.8114237E-2,1.4139157E2,2.3372711E2,3.215216E-2,1.7746165E2,2.7567926E2,-4.8837494E-2,4.5825765E-3,-2.966889E-3,2.56423E2,1.052875E-2,1E0,2.05E2,2.7917325E-2,-3.8457483E-2,-2.5851115E-5,-5.5768684E-2,-2.770403E-2,2.819625E-2,6.8130423E-3,-3.4452848E-2,-2.7237427E-3,1.7125823E-2,-2.7979678E-2],"split_indices":[12,11,2,4,1,13,10,4,0,11,10,0,7,4,0,4,4,0,0,0,4,0,11,4,0,0,0,0,0,0,0,0,0,0,0],"split_type":[0,0,0,0,0,0,0,0,0,0,0,0,0,0,0,0,0,0,0,0,0,0,0,0,0,0,0,0,0,0,0,0,0,0,0],"sum_hessian":[1.0265481E2,3.5208927E1,6.7445885E1,2.4660318E1,1.0548608E1,7.7102437E0,5.973564E1,2.2462315E1,2.1980042E0,3.5524616E0,6.9961457E0,2.487316E0,5.222928E0,8.617422E0,5.1118217E1,3.326848E0,1.9135468E1,1.9131949E0,1.6392667E0,1.9875448E0,5.008601E0,1.5051246E0,3.7178032E0,4.112544E0,4.5048776E0,1.9000639E0,1.4267842E0,1.528166E1,3.8538067E0,3.7476602E0,1.2609409E0,2.3220518E0,1.3957514E0,2.6823177E0,1.4302264E0],"tree_param":{"num_deleted":"0","num_feature":"14","num_nodes":"35","size_leaf_vector":"1"}},{"base_weights":[2.2801462E-1,-9.7727394E-1,8.737755E-1,-1.3703419E0,-3.4451005E-1,-3.7343642E-1,1.0422171E0,-5.286686E-2,-9.7296864E-1,-9.985698E-1,1.3530178E-1,-3.3950098E-2,-4.414483E-2,3.593923E-1,3.215775E-2,-1.372047E0,-1.20610714E-1,-4.3196455E-3,-1.3242428E0,-6.7998797E-1,5.91774E-1,2.3650454E-2,-4.888914E-1,-4.477399E-3,2.08873E-2,-4.497385E-2,-6.981766E-3,1.2660227E-2,-1.3366168E-2,-5.4637816E-2,-2.6509515E-3,-3.4451272E-2,6.9575915E-3,2.5101735E-3,2.6609596E-2,-3.4181654E-2,3.1989512E-3],"categories":[],"categories_nodes":[],"categories_segments":[],"categories_sizes":[],"default_left":[0,0,0,0,0,0,0,0,0,0,0,0,0,0,0,0,0,0,0,0,0,0,0,0,0,0,0,0,0,0,0,0,0,0,0,0,0],"id":22,"left_children":[1,3,5,7,9,11,13,-1,15,17,19,-1,21,23,-1,25,27,-1,29,31,33,-1,35,-1,-1,-1,-1,-1,-1,-1,-1,-1,-1,-1,-1,-1,-1],"loss_changes":[7.8211266E1,8.269173E0,1.409581E1,1.6090126E0,4.780478E0,2.072139E0,7.86129E-1,0E0,4.198719E0,1.585844E0,3.90784E0,0E0,2.9647038E0,7.7417076E-1,0E0,9.023819E-1,1.1026921E0,0E0,2.6030908E0,1.9091274E0,9.117336E-1,0E0,2.1195714E0,0E0,0E0,0E0,0E0,0E0,0E0,0E0,0E0,0E0,0E0,0E0,0E0,0E0,0E0],"parents":[2147483647,0,0,1,1,2,2,3,3,4,4,5,5,6,6,8,8,9,9,10,10,12,12,13,13,15,15,16,16,18,18,19,19,20,20,22,22],"right_children":[2,4,6,8,10,12,14,-1,16,18,20,-1,22,24,-1,26,28,-1,30,32,34,-1,36,-1,-1,-1,-1,-1,-1,-1,-1,-1,-1,-1,-1,-1,-1],"split_conditions":[7E0,4E0,4E0,1E0,1E0,2.2756384E2,1.1018708E2,-5.286686E-2,1.3037663E2,4.6216764E-2,1E0,-3.3950098E-2,2.36E2,1E0,3.215775E-2,5.602468E1,2.33E2,-4.3196455E-3,5.101808E-1,5.8021496E1,4.146434E-1,2.3650454E-2,1.20297386E2,-4.477399E-3,2.08873E-2,-4.497385E-2,-6.981766E-3,1.2660227E-2,-1.3366168E-2,-5.4637816E-2,-2.6509515E-3,-3.4451272E-2,6.9575915E-3,2.5101735E-3,2.6609596E-2,-3.4181654E-2,3.1989512E-3],"split_indices":[12,2,2,1,6,4,3,0,3,9,1,0,4,6,0,0,4,0,13,0,9,0,3,0,0,0,0,0,0,0,0,0,0,0,0,0,0],"split_type":[0,0,0,0,0,0,0,0,0,0,0,0,0,0,0,0,0,0,0,0,0,0,0,0,0,0,0,0,0,0,0,0,0,0,0,0,0],"sum_hessian":[9.83891E1,3.4145126E1,6.424397E1,2.0342735E1,1.3802393E1,7.4992666E0,5.674471E1,8.512789E0,1.18299465E1,5.383144E0,8.419249E0,1.5328996E0,5.966367E0,2.9119654E0,5.383274E1,7.642146E0,4.1878E0,1.8833275E0,3.4998162E0,2.8461595E0,5.5730896E0,1.8085241E0,4.1578426E0,1.3820424E0,1.529923E0,6.5911527E0,1.0509933E0,1.4565849E0,2.731215E0,2.1582155E0,1.3416007E0,1.7090303E0,1.1371292E0,2.5197256E0,3.053364E0,1.5507178E0,2.6071248E0],"tree_param":{"num_deleted":"0","num_feature":"14","num_nodes":"37","size_leaf_vector":"1"}},{"base_weights":[2.3384006E-1,-1.121359E0,8.0818254E-1,-1.6088548E0,-5.046831E-1,-2.497274E-1,1.025983E0,-1.7082843E0,-9.923334E-3,-1.3131316E0,-7.939332E-2,-6.5604043E-1,4.592215E-1,1.583386E-1,3.2124497E-2,-8.6617976E-1,-5.6766573E-2,-4.43696E-2,-1.1964494E-2,-6.0460675E-1,4.206618E-1,-1.132848E0,-6.101715E-3,2.472764E-2,-7.730947E-2,-2.4092978E-2,2.278143E-2,-4.114585E-2,1.2147439E-2,-3.7442476E-2,1.7789226E-4,-1.37590105E-2,2.3656255E-2,-4.736205E-2,-1.0282591E-2,2.2614213E-2,-1.7473198E-2,-8.8256085E-3,5.2538156E-3],"categories":[],"categories_nodes":[],"categories_segments":[],"categories_sizes":[],"default_left":[0,0,0,0,0,0,0,0,0,0,0,0,0,0,0,0,0,0,0,0,0,0,0,0,0,0,0,0,0,0,0,0,0,0,0,0,0,0,0],"id":23,"left_children":[1,3,5,7,9,11,13,15,-1,17,19,21,23,25,-1,27,-1,-1,-1,29,31,33,35,-1,37,-1,-1,-1,-1,-1,-1,-1,-1,-1,-1,-1,-1,-1,-1],"loss_changes":[7.9377754E1,8.335533E0,1.6705395E1,1.5364189E0,5.0157E0,4.0438395E0,2.1409912E0,7.0035934E-1,0E0,1.7882061E-1,3.0966551E0,2.6801484E0,1.1059849E0,2.974455E0,0E0,3.4791088E0,0E0,0E0,0E0,2.2422786E0,2.3457298E0,1.2190022E0,2.4863915E0,0E0,2.1953815E-1,0E0,0E0,0E0,0E0,0E0,0E0,0E0,0E0,0E0,0E0,0E0,0E0,0E0,0E0],"parents":[2147483647,0,0,1,1,2,2,3,3,4,4,5,5,6,6,7,7,9,9,10,10,11,11,12,12,13,13,15,15,19,19,20,20,21,21,22,22,24,24],"right_children":[2,4,6,8,10,12,14,16,-1,18,20,22,24,26,-1,28,-1,-1,-1,30,32,34,36,-1,38,-1,-1,-1,-1,-1,-1,-1,-1,-1,-1,-1,-1,-1,-1],"split_conditions":[4E0,2E0,6E0,1.5683517E2,1E0,1E0,4.6216764E-2,1.5245834E2,-9.923334E-3,1.695235E2,1.2470462E0,1E0,1.4408255E2,2.264391E2,3.2124497E-2,1.49E2,-5.6766573E-2,-4.43696E-2,-1.1964494E-2,1.5523607E2,2E0,2.654662E2,1.9762723E2,2.472764E-2,1.5484326E2,-2.4092978E-2,2.278143E-2,-4.114585E-2,1.2147439E-2,-3.7442476E-2,1.7789226E-4,-1.37590105E-2,2.3656255E-2,-4.736205E-2,-1.0282591E-2,2.2614213E-2,-1.7473198E-2,-8.8256085E-3,5.2538156E-3],"split_indices":[2,10,12,3,1,8,9,7,0,7,9,1,7,4,0,7,0,0,0,7,2,4,4,0,7,0,0,0,0,0,0,0,0,0,0,0,0,0,0],"split_type":[0,0,0,0,0,0,0,0,0,0,0,0,0,0,0,0,0,0,0,0,0,0,0,0,0,0,0,0,0,0,0,0,0,0,0,0,0,0,0],"sum_hessian":[9.9817955E1,2.9428064E1,7.038989E1,1.5536897E1,1.3891169E1,1.1992551E1,5.839734E1,1.4103122E1,1.4337747E0,4.068877E0,9.822291E0,7.670857E0,4.3216944E0,3.0919542E0,5.5305386E1,3.551687E0,1.05514345E1,2.9213583E0,1.1475188E0,4.6886597E0,5.133631E0,3.996177E0,3.67468E0,2.2527506E0,2.0689437E0,1.0600702E0,2.0318842E0,2.4847941E0,1.0668927E0,1.7743464E0,2.9143133E0,1.4415027E0,3.6921287E0,1.9164674E0,2.0797095E0,1.452119E0,2.222561E0,1.0238919E0,1.0450518E0],"tree_param":{"num_deleted":"0","num_feature":"14","num_nodes":"39","size_leaf_vector":"1"}},{"base_weights":[2.0212181E-1,-9.596563E-1,8.6011505E-1,-1.3650774E0,-2.5988117E-1,-2.688101E-1,1.0152124E0,-1.4701381E0,8.683381E-3,-1.1786634E0,3.284776E-1,-9.709107E-1,1.9204013E-1,4.5560467E-1,3.2367423E-2,-1.5539685E0,-1.3803825E-2,-5.469608E-1,-4.731831E-2,-3.0926275E-1,7.016034E-1,-7.549203E-3,-3.5388455E-2,-2.4134476E-2,7.0389986E-1,-8.462607E-3,7.6030546E-1,-5.4434054E-2,-2.8520172E-2,-2.9022116E-2,7.2315726E-3,2.170765E-2,-3.2094054E-2,2.6986033E-2,7.002335E-3,2.5121437E-2,4.3974794E-3,3.4044706E-3,2.644122E-2],"categories":[],"categories_nodes":[],"categories_segments":[],"categories_sizes":[],"default_left":[0,0,0,0,0,0,0,0,0,0,0,0,0,0,0,0,0,0,0,0,0,0,0,0,0,0,0,0,0,0,0,0,0,0,0,0,0,0,0],"id":24,"left_children":[1,3,5,7,9,11,13,15,-1,17,19,21,23,25,-1,27,-1,29,-1,31,33,-1,-1,-1,35,-1,37,-1,-1,-1,-1,-1,-1,-1,-1,-1,-1,-1,-1],"loss_changes":[7.5718575E1,9.829353E0,1.1316723E1,4.3355026E0,8.173216E0,2.9074154E0,1.492775E0,1.0897255E0,0E0,6.08016E-1,2.4924688E0,2.28199E-1,3.5817642E0,1.8822654E0,0E0,1.3020554E0,0E0,1.4890612E0,0E0,4.0919566E0,3.774569E-1,0E0,0E0,0E0,2.0747876E-1,0E0,3.323722E-1,0E0,0E0,0E0,0E0,0E0,0E0,0E0,0E0,0E0,0E0,0E0,0E0],"parents":[2147483647,0,0,1,1,2,2,3,3,4,4,5,5,6,6,7,7,9,9,10,10,11,11,12,12,13,13,15,15,17,17,19,19,20,20,24,24,26,26],"right_children":[2,4,6,8,10,12,14,16,-1,18,20,22,24,26,-1,28,-1,30,-1,32,34,-1,-1,-1,36,-1,38,-1,-1,-1,-1,-1,-1,-1,-1,-1,-1,-1,-1],"split_conditions":[7E0,4E0,4E0,2.412654E0,1E0,2E0,4.146434E-1,3.19E2,8.683381E-3,1.2802711E2,5.301763E1,4.8098016E-1,2E0,1.4703372E2,3.2367423E-2,2E0,-1.3803825E-2,2.2436502E2,-4.731831E-2,1.9762723E2,5.8524185E-1,-7.549203E-3,-3.5388455E-2,-2.4134476E-2,1.52E2,-8.462607E-3,4.647215E1,-5.4434054E-2,-2.8520172E-2,-2.9022116E-2,7.2315726E-3,2.170765E-2,-3.2094054E-2,2.6986033E-2,7.002335E-3,2.5121437E-2,4.3974794E-3,3.4044706E-3,2.644122E-2],"split_indices":[12,2,2,9,6,10,9,4,0,3,0,13,2,7,0,10,0,4,0,4,13,0,0,0,7,0,0,0,0,0,0,0,0,0,0,0,0,0,0],"split_type":[0,0,0,0,0,0,0,0,0,0,0,0,0,0,0,0,0,0,0,0,0,0,0,0,0,0,0,0,0,0,0,0,0,0,0,0,0,0,0],"sum_hessian":[9.697099E1,3.489702E1,6.207397E1,2.1493706E1,1.3403314E1,7.4093657E0,5.4664604E1,2.0315155E1,1.1785495E0,4.840723E0,8.562591E0,2.4975667E0,4.911799E0,6.4198256E0,4.824478E1,1.8260939E1,2.0542164E0,2.7905536E0,2.0501697E0,3.2237568E0,5.338834E0,1.0577848E0,1.439782E0,1.4727892E0,3.43901E0,1.8982679E0,4.5215573E0,1.135173E1,6.9092097E0,1.671225E0,1.1193286E0,1.3877313E0,1.8360255E0,3.104918E0,2.2339158E0,2.3690772E0,1.0699326E0,1.0183325E0,3.503225E0],"tree_param":{"num_deleted":"0","num_feature":"14","num_nodes":"39","size_leaf_vector":"1"}},{"base_weights":[2.7074993E-1,-9.167074E-1,8.125321E-1,-1.3081299E0,-9.906286E-2,1.2629446E-1,9.756735E-1,-1.4521852E0,1.105382E-2,-1.1275615E0,7.6558506E-1,-7.906046E-1,4.079175E-1,-1.5567913E-2,1.0213493E0,-1.5571133E0,-6.465408E-3,-3.22043E-1,-4.830097E-2,-4.0024547E-3,2.9314574E-2,-4.1540943E-2,9.614807E-4,6.382588E-1,-1.5816903E-2,3.1088265E-2,4.1628825E-3,-2.132483E-2,-5.078169E-2,-2.1855053E-2,9.05882E-3,-3.1416798E-3,2.9780077E-2],"categories":[],"categories_nodes":[],"categories_segments":[],"categories_sizes":[],"default_left":[0,0,0,0,0,0,0,0,0,0,0,0,0,0,0,0,0,0,0,0,0,0,0,0,0,0,0,0,0,0,0,0,0],"id":25,"left_children":[1,3,5,7,9,11,13,15,-1,17,19,21,23,-1,25,27,-1,29,-1,-1,-1,-1,-1,31,-1,-1,-1,-1,-1,-1,-1,-1,-1],"loss_changes":[6.3619705E1,9.820524E0,7.4495125E0,5.593231E0,1.0776077E1,3.9739144E0,4.2506447E0,2.1932411E0,0E0,1.6172595E0,1.3954651E0,1.8346417E0,2.8088286E0,0E0,5.5732346E-1,8.399582E-1,0E0,1.0591449E0,0E0,0E0,0E0,0E0,0E0,2.6480591E0,0E0,0E0,0E0,0E0,0E0,0E0,0E0,0E0,0E0],"parents":[2147483647,0,0,1,1,2,2,3,3,4,4,5,5,6,6,7,7,9,9,10,10,11,11,12,12,14,14,15,15,17,17,23,23],"right_children":[2,4,6,8,10,12,14,16,-1,18,20,22,24,-1,26,28,-1,30,-1,-1,-1,-1,-1,32,-1,-1,-1,-1,-1,-1,-1,-1,-1],"split_conditions":[4E0,1E0,2E0,2.6102765E0,2E0,1E0,1.05E2,1.5683517E2,1.105382E-2,1E-1,1E0,1.6016049E2,1.673124E2,-1.5567913E-2,1.69E2,1.1018708E2,-6.465408E-3,1.3153055E2,-4.830097E-2,-4.0024547E-3,2.9314574E-2,-4.1540943E-2,9.614807E-4,1.4703372E2,-1.5816903E-2,3.1088265E-2,4.1628825E-3,-2.132483E-2,-5.078169E-2,-2.1855053E-2,9.05882E-3,-3.1416798E-3,2.9780077E-2],"split_indices":[2,11,10,9,10,1,3,3,0,9,1,7,7,0,7,3,0,3,0,0,0,0,0,7,0,0,0,0,0,0,0,0,0],"split_type":[0,0,0,0,0,0,0,0,0,0,0,0,0,0,0,0,0,0,0,0,0,0,0,0,0,0,0,0,0,0,0,0,0],"sum_hessian":[9.673143E1,3.0089783E1,6.664165E1,1.9942865E1,1.0146918E1,1.314071E1,5.3500935E1,1.8488178E1,1.4546864E0,4.4954777E0,5.6514406E0,2.6630673E0,1.0477642E1,1.2792795E0,5.2221657E1,1.6803345E1,1.6848338E0,2.3085992E0,2.1868784E0,1.1469927E0,4.504448E0,1.1496323E0,1.513435E0,8.661628E0,1.8160148E0,5.1181946E1,1.0397123E0,3.1827583E0,1.3620586E1,1.2965794E0,1.01202E0,3.024862E0,5.6367655E0],"tree_param":{"num_deleted":"0","num_feature":"14","num_nodes":"33","size_leaf_vector":"1"}},{"base_weights":[2.2363228E-1,-8.878516E-1,8.186623E-1,1.6296254E-2,-1.0044531E0,-2.265354E-1,9.714756E-1,-1.4049087E0,-6.360625E-1,-4.195116E-2,3.1764644E-1,5.6128025E-1,1.0303677E0,-1.4653335E0,-1.1914549E-2,-3.3009672E-1,-4.6931665E-2,2.4609582E-2,-1.0678067E-1,-1.4736763E-1,8.1796986E-1,1.0107335E-2,1.0488074E0,-4.7810633E-2,-1.303609E-2,-2.152471E-2,1.1131448E-2,1.9311484E-2,-1.668921E-2,-1.15649905E-2,4.446697E-3,2.793646E-2,3.4167257E-3,1.408036E-2,3.210827E-2],"categories":[],"categories_nodes":[],"categories_segments":[],"categories_sizes":[],"default_left":[0,0,0,0,0,0,0,0,0,0,0,0,0,0,0,0,0,0,0,0,0,0,0,0,0,0,0,0,0,0,0,0,0,0,0],"id":26,"left_children":[1,3,5,-1,7,9,11,13,15,-1,17,19,21,23,-1,25,-1,-1,27,29,31,-1,33,-1,-1,-1,-1,-1,-1,-1,-1,-1,-1,-1,-1],"loss_changes":[6.2122334E1,6.0268154E0,9.960289E0,0E0,3.6389885E0,5.9217377E0,7.115097E-1,2.6411057E-1,4.5480247E0,0E0,1.512887E0,1.7394509E0,2.2837448E-1,9.9261475E-1,0E0,4.252985E0,0E0,0E0,1.8786346E0,2.8336352E-1,4.2704248E-1,0E0,4.3067932E-2,0E0,0E0,0E0,0E0,0E0,0E0,0E0,0E0,0E0,0E0,0E0,0E0],"parents":[2147483647,0,0,1,1,2,2,4,4,5,5,6,6,7,7,8,8,10,10,11,11,12,12,13,13,15,15,18,18,19,19,20,20,22,22],"right_children":[2,4,6,-1,8,10,12,14,16,-1,18,20,22,24,-1,26,-1,-1,28,30,32,-1,34,-1,-1,-1,-1,-1,-1,-1,-1,-1,-1,-1,-1],"split_conditions":[6E0,1.1803117E2,4E0,1.6296254E-2,1E0,2E0,2E0,1E0,1.78E2,-4.195116E-2,1.4613512E2,1.4703372E2,7E0,1E0,-1.1914549E-2,4E0,-4.6931665E-2,2.4609582E-2,5.1384502E1,1.2855106E2,1.673124E2,1.0107335E-2,1.0501353E2,-4.7810633E-2,-1.303609E-2,-2.152471E-2,1.1131448E-2,1.9311484E-2,-1.668921E-2,-1.15649905E-2,4.446697E-3,2.793646E-2,3.4167257E-3,1.408036E-2,3.210827E-2],"split_indices":[12,7,2,0,1,10,10,5,7,0,7,7,12,8,0,2,0,0,0,3,7,0,7,0,0,0,0,0,0,0,0,0,0,0,0],"split_type":[0,0,0,0,0,0,0,0,0,0,0,0,0,0,0,0,0,0,0,0,0,0,0,0,0,0,0,0,0,0,0,0,0,0,0],"sum_hessian":[9.1831276E1,3.1848288E1,5.998299E1,2.1238177E0,2.9724468E1,7.5896454E0,5.2393345E1,1.2894254E1,1.6830215E1,1.9090453E0,5.6806E0,7.8998647E0,4.449348E1,1.1736484E1,1.1577698E0,1.3677763E1,3.1524522E0,2.1735609E0,3.507039E0,2.2138739E0,5.685991E0,1.6516402E0,4.2841843E1,9.951282E0,1.7852019E0,8.795048E0,4.882715E0,1.151908E0,2.3551311E0,1.05765E0,1.1562239E0,4.620259E0,1.0657322E0,2.3472857E0,4.0494556E1],"tree_param":{"num_deleted":"0","num_feature":"14","num_nodes":"35","size_leaf_vector":"1"}},{"base_weights":[1.8982965E-1,-1.0535916E0,7.621047E-1,-1.4284768E0,-1.5784787E-1,-1.9259115E-1,1.0031538E0,-1.5605925E0,9.37129E-3,-1.0691332E0,6.7752475E-1,-7.046691E-1,5.4795814E-1,4.3327448E-1,3.2091364E-2,-5.4628428E-2,-9.1429377E-1,-1.5282229E-1,-4.8618868E-2,2.8270705E-2,-6.814534E-3,-1.1097687E0,1.5839782E-2,-1.7479705E-2,2.7822822E-2,6.3796467E-1,-1.2336303E-2,-4.6425715E-2,-4.861342E-3,-1.6661396E-2,1.0017908E-2,6.0635232E-3,-4.1413885E-2,-8.204391E-4,2.631042E-2],"categories":[],"categories_nodes":[],"categories_segments":[],"categories_sizes":[],"default_left":[0,0,0,0,0,0,0,0,0,0,0,0,0,0,0,0,0,0,0,0,0,0,0,0,0,0,0,0,0,0,0,0,0,0,0],"id":27,"left_children":[1,3,5,7,9,11,13,15,-1,17,19,21,23,25,-1,-1,27,29,-1,-1,-1,31,-1,-1,-1,33,-1,-1,-1,-1,-1,-1,-1,-1,-1],"loss_changes":[6.894783E1,1.0051163E1,1.5419048E1,5.4208603E0,8.453786E0,5.762144E0,1.5462914E0,1.7179108E0,0E0,2.402326E0,1.6298866E0,4.989514E0,3.268155E0,1.5107175E0,0E0,0E0,3.455884E0,7.8787816E-1,0E0,0E0,0E0,2.7505398E0,0E0,0E0,0E0,1.0108368E0,0E0,0E0,0E0,0E0,0E0,0E0,0E0,0E0,0E0],"parents":[2147483647,0,0,1,1,2,2,3,3,4,4,5,5,6,6,7,7,9,9,10,10,11,11,12,12,13,13,16,16,17,17,21,21,25,25],"right_children":[2,4,6,8,10,12,14,16,-1,18,20,22,24,26,-1,-1,28,30,-1,-1,-1,32,-1,-1,-1,34,-1,-1,-1,-1,-1,-1,-1,-1,-1],"split_conditions":[4E0,1E0,7E0,2.412654E0,2E0,1E0,4.146434E-1,2.64E2,9.37129E-3,2E-1,2.64E2,5.101808E-1,1E0,5.811287E-1,3.2091364E-2,-5.4628428E-2,1E0,2.654662E2,-4.8618868E-2,2.8270705E-2,-6.814534E-3,1.83E2,1.5839782E-2,-1.7479705E-2,2.7822822E-2,2.264391E2,-1.2336303E-2,-4.6425715E-2,-4.861342E-3,-1.6661396E-2,1.0017908E-2,6.0635232E-3,-4.1413885E-2,-8.204391E-4,2.631042E-2],"split_indices":[2,11,12,9,10,11,9,4,0,9,4,13,1,13,0,0,1,4,0,0,0,4,0,0,0,4,0,0,0,0,0,0,0,0,0],"split_type":[0,0,0,0,0,0,0,0,0,0,0,0,0,0,0,0,0,0,0,0,0,0,0,0,0,0,0,0,0,0,0,0,0,0,0],"sum_hessian":[9.476574E1,2.960338E1,6.516236E1,2.044996E1,9.15342E0,1.3176545E1,5.1985813E1,1.91037E1,1.3462584E0,4.2439656E0,4.9094543E0,7.818576E0,5.3579698E0,6.2220097E0,4.57638E1,1.2322287E1,6.7814155E0,2.0744197E0,2.1695457E0,3.765502E0,1.1439527E0,5.9596915E0,1.8588843E0,1.211851E0,4.1461186E0,5.2049584E0,1.0170512E0,3.1079776E0,3.6734376E0,1.058238E0,1.0161816E0,1.0627136E0,4.8969774E0,1.6099118E0,3.5950465E0],"tree_param":{"num_deleted":"0","num_feature":"14","num_nodes":"35","size_leaf_vector":"1"}},{"base_weights":[2.1723665E-1,-8.245884E-1,8.1840044E-1,-1.1563954E0,-8.0206566E-2,-1.6243167E-1,9.754398E-1,-1.5284538E0,-1.6976704E-1,-7.479503E-1,4.822176E-1,-8.243656E-1,2.5182486E-1,2.9957068E-1,3.194897E-2,-1.6191039E0,-5.4945517E-3,-5.6193566E-1,1.8892264E-2,-3.6646094E-2,1.0546388E-2,-7.2331247E-3,7.564999E-1,-4.8955935E-3,-3.156673E-2,-1.621655E-2,7.018041E-1,-4.87182E-1,7.2612756E-1,-2.101866E-2,-5.1453907E-2,1.2186871E-2,-2.8312007E-2,6.3858675E-3,2.5967957E-2,3.5940455E-3,2.5213726E-2,-2.4601419E-2,2.8627142E-3,2.5477072E-2,4.938627E-3],"categories":[],"categories_nodes":[],"categories_segments":[],"categories_sizes":[],"default_left":[0,0,0,0,0,0,0,0,0,0,0,0,0,0,0,0,0,0,0,0,0,0,0,0,0,0,0,0,0,0,0,0,0,0,0,0,0,0,0,0,0],"id":28,"left_children":[1,3,5,7,9,11,13,15,17,19,21,23,25,27,-1,29,-1,31,-1,-1,-1,-1,33,-1,-1,-1,35,37,39,-1,-1,-1,-1,-1,-1,-1,-1,-1,-1,-1,-1],"loss_changes":[5.7238403E1,8.192129E0,9.056637E0,8.229967E0,4.6481886E0,2.6289036E0,2.7026901E0,1.7362556E0,2.6922448E0,3.3513827E0,1.5324582E0,3.756163E-1,2.5889733E0,2.7809958E0,0E0,1.644516E-1,0E0,2.4282527E0,0E0,0E0,0E0,0E0,1.2271643E-1,0E0,0E0,0E0,2.53381E-1,6.8742526E-1,2.1214914E-1,0E0,0E0,0E0,0E0,0E0,0E0,0E0,0E0,0E0,0E0,0E0,0E0],"parents":[2147483647,0,0,1,1,2,2,3,3,4,4,5,5,6,6,7,7,8,8,9,9,10,10,11,11,12,12,13,13,15,15,17,17,22,22,26,26,27,27,28,28],"right_children":[2,4,6,8,10,12,14,16,18,20,22,24,26,28,-1,30,-1,32,-1,-1,-1,-1,34,-1,-1,-1,36,38,40,-1,-1,-1,-1,-1,-1,-1,-1,-1,-1,-1,-1],"split_conditions":[7E0,1E0,4E0,5.8021496E1,2E0,2E0,4.146434E-1,1.6050792E0,1.5728651E2,4E0,5.5680126E-1,2E-1,2E0,1.4703372E2,3.194897E-2,1.089765E2,-5.4945517E-3,6.0006813E1,1.8892264E-2,-3.6646094E-2,1.0546388E-2,-7.2331247E-3,1E0,-4.8955935E-3,-3.156673E-2,-1.621655E-2,5.4062813E1,1.3202351E2,1.3066415E2,-2.101866E-2,-5.1453907E-2,1.2186871E-2,-2.8312007E-2,6.3858675E-3,2.5967957E-2,3.5940455E-3,2.5213726E-2,-2.4601419E-2,2.8627142E-3,2.5477072E-2,4.938627E-3],"split_indices":[12,11,2,0,10,10,9,9,7,2,9,9,2,7,0,3,0,0,0,0,0,0,1,0,0,0,0,3,3,0,0,0,0,0,0,0,0,0,0,0,0],"split_type":[0,0,0,0,0,0,0,0,0,0,0,0,0,0,0,0,0,0,0,0,0,0,0,0,0,0,0,0,0,0,0,0,0,0,0,0,0,0,0,0,0],"sum_hessian":[8.931275E1,3.2543232E1,5.676952E1,2.2126764E1,1.0416469E1,7.8301077E0,4.8939415E1,1.5668857E1,6.457907E0,4.611523E0,5.8049455E0,2.632958E0,5.1971498E0,6.2326503E0,4.2706764E1,1.4489023E1,1.1798335E0,4.5320387E0,1.9258686E0,3.1456156E0,1.4659073E0,1.6292754E0,4.1756697E0,1.1146746E0,1.5182834E0,1.8094953E0,3.3876543E0,2.1412137E0,4.091437E0,2.1566882E0,1.23323345E1,1.2636585E0,3.2683802E0,1.1911716E0,2.9844983E0,1.0104196E0,2.3772347E0,1.103303E0,1.0379107E0,2.9354315E0,1.1560054E0],"tree_param":{"num_deleted":"0","num_feature":"14","num_nodes":"41","size_leaf_vector":"1"}},{"base_weights":[2.5377595E-1,-6.82429E-1,8.129865E-1,-1.0248103E0,1.40048005E-2,-1.4116062E-1,9.5328355E-1,-1.2467769E0,-2.546869E-1,6.4994943E-1,-3.9931107E-1,-5.3419733E-1,5.8469915E-1,1.759724E-1,3.1860128E-2,-4.0114424E-1,-1.3671422E0,-6.7647576E-1,2.2253925E-2,5.566775E-4,2.741957E-2,-8.97314E-1,2.2881655E-2,1.3579966E-2,-1.0878989E0,6.064985E-3,2.0934839E-2,-5.5620867E-1,6.770068E-1,-3.251657E-2,1.1883217E-2,-2.5249332E-2,-4.826053E-2,-3.472338E-2,1.15569426E-4,-3.6240943E-2,-2.0497737E-3,-6.271977E-3,-4.0111076E-2,-3.4051504E-2,6.8583116E-3,2.4637185E-2,1.9631574E-3],"categories":[],"categories_nodes":[],"categories_segments":[],"categories_sizes":[],"default_left":[0,0,0,0,0,0,0,0,0,0,0,0,0,0,0,0,0,0,0,0,0,0,0,0,0,0,0,0,0,0,0,0,0,0,0,0,0,0,0,0,0,0,0],"id":29,"left_children":[1,3,5,7,9,11,13,15,17,19,21,23,25,27,-1,29,31,33,-1,-1,-1,35,-1,-1,37,-1,-1,39,41,-1,-1,-1,-1,-1,-1,-1,-1,-1,-1,-1,-1,-1,-1],"loss_changes":[4.792612E1,8.212107E0,7.778675E0,3.624754E0,3.4972007E0,2.64919E0,4.0312004E0,1.2476349E0,3.1987302E0,8.553817E-1,5.3632E0,3.6816168E0,4.101038E-3,3.0630279E0,0E0,2.396465E0,5.5402946E-1,1.6508E0,0E0,0E0,0E0,1.4936128E0,0E0,0E0,6.033945E-1,0E0,0E0,1.8604947E0,3.6956E-1,0E0,0E0,0E0,0E0,0E0,0E0,0E0,0E0,0E0,0E0,0E0,0E0,0E0,0E0],"parents":[2147483647,0,0,1,1,2,2,3,3,4,4,5,5,6,6,7,7,8,8,9,9,10,10,11,11,12,12,13,13,15,15,16,16,17,17,21,21,24,24,27,27,28,28],"right_children":[2,4,6,8,10,12,14,16,18,20,22,24,26,28,-1,30,32,34,-1,-1,-1,36,-1,-1,38,-1,-1,40,42,-1,-1,-1,-1,-1,-1,-1,-1,-1,-1,-1,-1,-1,-1],"split_conditions":[7E0,1E0,4E0,2.7179382E2,2.37E2,1E0,4.146434E-1,1.86E2,1.3161868E0,1.4218675E2,1E0,1.5484326E2,2.3372711E2,2.3372711E2,3.1860128E-2,1.6803717E2,1.5484326E2,5.8021496E1,2.2253925E-2,5.566775E-4,2.741957E-2,1E0,2.2881655E-2,1.3579966E-2,4.8243156E1,6.064985E-3,2.0934839E-2,5.7798756E1,5.101808E-1,-3.251657E-2,1.1883217E-2,-2.5249332E-2,-4.826053E-2,-3.472338E-2,1.15569426E-4,-3.6240943E-2,-2.0497737E-3,-6.271977E-3,-4.0111076E-2,-3.4051504E-2,6.8583116E-3,2.4637185E-2,1.9631574E-3],"split_indices":[12,11,2,4,4,11,9,4,9,7,8,7,4,4,0,4,7,0,0,0,0,5,0,0,0,0,0,0,13,0,0,0,0,0,0,0,0,0,0,0,0,0,0],"split_type":[0,0,0,0,0,0,0,0,0,0,0,0,0,0,0,0,0,0,0,0,0,0,0,0,0,0,0,0,0,0,0,0,0,0,0,0,0,0,0,0,0,0,0],"sum_hessian":[8.948345E1,3.3379932E1,5.610352E1,2.2062191E1,1.131774E1,7.1911345E0,4.8912384E1,1.6645622E1,5.416568E0,4.232665E0,7.085075E0,4.836388E0,2.3547463E0,6.3231196E0,4.2589264E1,2.6139443E0,1.4031679E1,4.0313344E0,1.3852334E0,1.5636841E0,2.6689808E0,5.1190515E0,1.9660234E0,1.8038529E0,3.0325353E0,1.1735514E0,1.1811949E0,2.5242352E0,3.7988844E0,1.2144226E0,1.3995218E0,5.830763E0,8.200915E0,1.950844E0,2.0804904E0,3.390867E0,1.7281846E0,1.0760214E0,1.9565139E0,1.1959257E0,1.3283095E0,2.7965107E0,1.0023737E0],"tree_param":{"num_deleted":"0","num_feature":"14","num_nodes":"43","size_leaf_vector":"1"}},{"base_weights":[2.1407795E-1,-7.084277E-1,8.092298E-1,-1.046401E0,-1.4481446E-1,-1.8836708E-1,9.680704E-1,-1.1312639E0,8.607695E-3,-7.0759076E-1,3.745641E-1,-7.1568024E-1,6.5728885E-1,2.519696E-1,3.1768776E-2,-3.993395E-2,-5.4470193E-1,-1.0901531E0,5.7726447E-2,-1.7177844E-1,2.7088396E-2,-1.1190029E0,-4.4804554E-2,3.6675434E-3,2.4099242E-2,-1.5611576E-2,5.6317055E-1,1.0144287E-2,-2.6359206E-2,-1.0188833E-2,-3.8112864E-2,-9.109838E-3,1.0222003E-2,1.8753696E-2,-1.6090328E-2,-4.6981692E-2,-3.6018933E-3,6.4386837E-3,-9.1510955E-3,2.5817623E-2,-6.923342E-3],"categories":[],"categories_nodes":[],"categories_segments":[],"categories_sizes":[],"default_left":[0,0,0,0,0,0,0,0,0,0,0,0,0,0,0,0,0,0,0,0,0,0,0,0,0,0,0,0,0,0,0,0,0,0,0,0,0,0,0,0,0],"id":30,"left_children":[1,3,5,7,9,11,13,15,-1,17,19,21,23,25,-1,-1,27,29,31,33,-1,35,37,-1,-1,-1,39,-1,-1,-1,-1,-1,-1,-1,-1,-1,-1,-1,-1,-1,-1],"loss_changes":[5.13026E1,6.852112E0,9.155994E0,2.907095E0,4.632893E0,4.3122964E0,2.923355E0,1.8142853E0,0E0,2.2641127E0,2.587273E0,1.5152526E0,2.0103288E-1,1.9353518E0,0E0,0E0,2.4190502E0,2.5353432E-1,4.5686406E-1,1.782773E0,0E0,1.4069033E0,2.8244162E-1,0E0,0E0,0E0,1.4620539E0,0E0,0E0,0E0,0E0,0E0,0E0,0E0,0E0,0E0,0E0,0E0,0E0,0E0,0E0],"parents":[2147483647,0,0,1,1,2,2,3,3,4,4,5,5,6,6,7,7,9,9,10,10,11,11,12,12,13,13,16,16,17,17,18,18,19,19,21,21,22,22,26,26],"right_children":[2,4,6,8,10,12,14,16,-1,18,20,22,24,26,-1,-1,28,30,32,34,-1,36,38,-1,-1,-1,40,-1,-1,-1,-1,-1,-1,-1,-1,-1,-1,-1,-1,-1,-1],"split_conditions":[7E0,4E0,4E0,2.412654E0,1E0,1E0,4.146434E-1,5.602468E1,8.607695E-3,1E0,6.018076E-1,1.4173096E0,2.3372711E2,1.4703372E2,3.1768776E-2,-3.993395E-2,5.8021496E1,4.6216764E-2,5.7112915E1,2.1253008E2,2.7088396E-2,2.5823764E2,1.52E2,3.6675434E-3,2.4099242E-2,-1.5611576E-2,1.61E2,1.0144287E-2,-2.6359206E-2,-1.0188833E-2,-3.8112864E-2,-9.109838E-3,1.0222003E-2,1.8753696E-2,-1.6090328E-2,-4.6981692E-2,-3.6018933E-3,6.4386837E-3,-9.1510955E-3,2.5817623E-2,-6.923342E-3],"split_indices":[12,2,2,9,6,11,9,0,0,8,9,9,4,7,0,0,0,9,0,4,0,4,7,0,0,0,7,0,0,0,0,0,0,0,0,0,0,0,0,0,0],"split_type":[0,0,0,0,0,0,0,0,0,0,0,0,0,0,0,0,0,0,0,0,0,0,0,0,0,0,0,0,0,0,0,0,0,0,0,0,0,0,0,0,0],"sum_hessian":[9.139793E1,3.5767204E1,5.5630722E1,2.1823843E1,1.3943364E1,7.615537E0,4.8015186E1,2.0660406E1,1.163437E0,6.5181723E0,7.4251914E0,4.785322E0,2.8302147E0,5.8326726E0,4.2182514E1,1.4462876E1,6.197529E0,4.0628247E0,2.4553475E0,3.9823627E0,3.4428287E0,2.571433E0,2.2138894E0,1.0007044E0,1.8295102E0,1.4821086E0,4.350564E0,1.6974163E0,4.5001125E0,1.3454347E0,2.7173903E0,1.046294E0,1.4090536E0,1.0256647E0,2.9566982E0,1.384232E0,1.1872009E0,1.1964262E0,1.0174633E0,3.1038961E0,1.2466679E0],"tree_param":{"num_deleted":"0","num_feature":"14","num_nodes":"41","size_leaf_vector":"1"}},{"base_weights":[1.9410416E-1,-7.758157E-1,8.0725497E-1,-1.0857263E0,-6.5772906E-2,-2.3009178E-1,9.842987E-1,-1.2268895E0,1.2168465E-1,-8.503528E-1,6.28366E-1,-6.8389547E-1,4.654318E-1,4.1740453E-1,3.1676378E-2,-1.5062613E0,-3.3126402E-1,-1.8670134E-2,2.1342965E-2,-1.2012066E0,1.8659704E-3,2.4645038E-2,-1.553391E-3,2.6354727E-3,-9.946436E-1,2.3021346E-2,-1.342622E-3,-2.024297E-1,7.1200395E-1,-2.8052436E-2,-5.0096426E-2,1.0389502E-2,-4.3862887E-2,-1.19841555E-2,-4.097276E-2,-9.588256E-3,-3.6768537E-2,-1.2294051E-2,2.96368E-3,3.0924E-3,2.528896E-2],"categories":[],"categories_nodes":[],"categories_segments":[],"categories_sizes":[],"default_left":[0,0,0,0,0,0,0,0,0,0,0,0,0,0,0,0,0,0,0,0,0,0,0,0,0,0,0,0,0,0,0,0,0,0,0,0,0,0,0,0,0],"id":31,"left_children":[1,3,5,7,9,11,13,15,17,19,21,23,25,27,-1,29,31,-1,-1,33,-1,-1,-1,-1,35,-1,-1,37,39,-1,-1,-1,-1,-1,-1,-1,-1,-1,-1,-1,-1],"loss_changes":[5.4800373E1,7.804634E0,1.0566593E1,4.3851624E0,7.036858E0,3.1648695E0,1.518528E0,5.091049E0,1.9834157E0,2.0052648E0,9.502499E-1,1.49335E0,6.745676E-1,1.434556E0,0E0,3.6621094E-3,5.558737E0,0E0,0E0,3.548813E-2,0E0,0E0,0E0,0E0,2.7261257E-1,0E0,0E0,2.3133303E-1,3.1275344E-1,0E0,0E0,0E0,0E0,0E0,0E0,0E0,0E0,0E0,0E0,0E0,0E0],"parents":[2147483647,0,0,1,1,2,2,3,3,4,4,5,5,6,6,7,7,8,8,9,9,10,10,11,11,12,12,13,13,15,15,16,16,19,19,24,24,27,27,28,28],"right_children":[2,4,6,8,10,12,14,16,18,20,22,24,26,28,-1,30,32,-1,-1,34,-1,-1,-1,-1,36,-1,-1,38,40,-1,-1,-1,-1,-1,-1,-1,-1,-1,-1,-1,-1],"split_conditions":[7E0,1E0,4E0,1.6050792E0,2E0,1E0,4.146434E-1,5.8021496E1,3E0,4E0,6.2264957E1,5.0903458E1,5.6063557E1,1.4703372E2,3.1676378E-2,4.2694637E1,6.5E1,-1.8670134E-2,2.1342965E-2,1.5245834E2,1.8659704E-3,2.4645038E-2,-1.553391E-3,2.6354727E-3,3.248688E-1,2.3021346E-2,-1.342622E-3,5.8279514E1,3.0154437E-1,-2.8052436E-2,-5.0096426E-2,1.0389502E-2,-4.3862887E-2,-1.19841555E-2,-4.097276E-2,-9.588256E-3,-3.6768537E-2,-1.2294051E-2,2.96368E-3,3.0924E-3,2.528896E-2],"split_indices":[12,11,2,9,10,11,9,0,2,2,0,0,0,7,0,0,0,0,0,7,0,0,0,0,9,0,0,0,13,0,0,0,0,0,0,0,0,0,0,0,0],"split_type":[0,0,0,0,0,0,0,0,0,0,0,0,0,0,0,0,0,0,0,0,0,0,0,0,0,0,0,0,0,0,0,0,0,0,0,0,0,0,0,0,0],"sum_hessian":[9.009373E1,3.4792114E1,5.5301613E1,2.3852274E1,1.0939838E1,8.018638E0,4.7282974E1,2.1341072E1,2.5112026E0,5.029728E0,5.9101105E0,4.8626533E0,3.1559844E0,6.0668426E0,4.1216133E1,1.5747245E1,5.593826E0,1.0859333E0,1.4252694E0,3.4044752E0,1.6252528E0,4.44116E0,1.4689504E0,1.6018212E0,3.2608318E0,1.6659186E0,1.4900658E0,2.0553246E0,4.011518E0,5.0017123E0,1.0745533E1,3.9317315E0,1.6620946E0,1.1634623E0,2.241013E0,1.4390041E0,1.8218279E0,1.0037932E0,1.0515314E0,1.0263693E0,2.9851487E0],"tree_param":{"num_deleted":"0","num_feature":"14","num_nodes":"41","size_leaf_vector":"1"}},{"base_weights":[1.992E-1,-9.5862186E-1,7.5358355E-1,-1.0771928E0,1.4121316E-2,-2.6243863E-1,1.001088E0,-1.3760011E0,-3.57965E-1,-8.967517E-1,2.2630447E-1,5.329231E-1,3.1641945E-2,-2.3380057E-3,-4.5135785E-2,-9.789544E-1,3.981446E-1,-4.1586116E-2,-1.6971746E-1,-2.4066857E-1,2.5262091E-2,7.691061E-1,-1.266105E-2,-7.870209E-3,-4.3536E-2,2.6098128E-2,-1.3054023E-2,-1.301952E-2,6.4464277E-3,-2.1291029E-2,2.1183547E-2,4.0283483E-3,2.645648E-2],"categories":[],"categories_nodes":[],"categories_segments":[],"categories_sizes":[],"default_left":[0,0,0,0,0,0,0,0,0,0,0,0,0,0,0,0,0,0,0,0,0,0,0,0,0,0,0,0,0,0,0,0,0],"id":32,"left_children":[1,3,5,7,-1,9,11,13,15,17,19,21,-1,-1,-1,23,25,-1,27,29,-1,31,-1,-1,-1,-1,-1,-1,-1,-1,-1,-1,-1],"loss_changes":[5.534585E1,5.251377E0,1.4874531E1,5.1281548E0,0E0,3.9771504E0,6.1654663E-1,2.9067078E0,4.628784E0,1.7217679E0,2.409465E0,1.8686646E0,0E0,0E0,0E0,1.3946605E0,2.2585177E0,0E0,4.339689E-1,2.784722E0,0E0,2.9989386E-1,0E0,0E0,0E0,0E0,0E0,0E0,0E0,0E0,0E0,0E0,0E0],"parents":[2147483647,0,0,1,1,2,2,3,3,5,5,6,6,7,7,8,8,9,9,10,10,11,11,15,15,16,16,18,18,19,19,21,21],"right_children":[2,4,6,8,-1,10,12,14,16,18,20,22,-1,-1,-1,24,26,-1,28,30,-1,32,-1,-1,-1,-1,-1,-1,-1,-1,-1,-1,-1],"split_conditions":[4E0,2.6102765E0,6E0,1E0,1.4121316E-2,1E0,4.146434E-1,1.3264099E2,2E0,2E0,6.018076E-1,2E-1,3.1641945E-2,-2.3380057E-3,-4.5135785E-2,1E-1,2.37E2,-4.1586116E-2,1.3106918E2,3.04E2,2.5262091E-2,2.15E2,-1.266105E-2,-7.870209E-3,-4.3536E-2,2.6098128E-2,-1.3054023E-2,-1.301952E-2,6.4464277E-3,-2.1291029E-2,2.1183547E-2,4.0283483E-3,2.645648E-2],"split_indices":[2,9,12,11,0,6,9,7,10,10,9,9,0,0,0,9,4,0,7,4,0,4,0,0,0,0,0,0,0,0,0,0,0],"split_type":[0,0,0,0,0,0,0,0,0,0,0,0,0,0,0,0,0,0,0,0,0,0,0,0,0,0,0,0,0,0,0,0,0],"sum_hessian":[8.40995E1,2.6993925E1,5.710558E1,2.515366E1,1.8402661E0,1.1174242E1,4.593134E1,1.7125559E1,8.028101E0,4.499619E0,6.674623E0,5.845977E0,4.008536E1,1.6876024E0,1.5437956E1,4.246085E0,3.782016E0,2.1473382E0,2.3522809E0,4.1423655E0,2.5322576E0,4.842848E0,1.0031292E0,2.3045452E0,1.9415399E0,2.3866997E0,1.3953162E0,1.3181446E0,1.0341362E0,2.937538E0,1.2048274E0,1.0610086E0,3.7818391E0],"tree_param":{"num_deleted":"0","num_feature":"14","num_nodes":"33","size_leaf_vector":"1"}},{"base_weights":[1.8317147E-1,-8.054784E-1,8.198157E-1,-1.1487757E0,2.3996432E-3,1.244437E-1,9.279899E-1,-1.2608353E0,-2.3978128E-1,-8.2141805E-1,5.5505073E-1,-6.8313164E-1,2.7507123E-2,9.642714E-1,-7.1872533E-3,-1.460019E0,-5.382162E-1,-2.353495E-2,1.9356167E-2,2.1053732E-3,-4.3746773E-2,-7.541062E-3,8.040827E-1,-3.378665E-2,1.8852579E-3,9.990083E-1,3.695046E-1,-1.5891593E-2,-4.636765E-2,4.2560026E-3,-2.9834742E-2,6.162331E-3,2.7263416E-2,5.4049385E-3,3.0467791E-2,2.185156E-2,-1.0464513E-2],"categories":[],"categories_nodes":[],"categories_segments":[],"categories_sizes":[],"default_left":[0,0,0,0,0,0,0,0,0,0,0,0,0,0,0,0,0,0,0,0,0,0,0,0,0,0,0,0,0,0,0,0,0,0,0,0,0],"id":33,"left_children":[1,3,5,7,9,11,13,15,17,19,21,23,-1,25,-1,27,29,-1,-1,-1,-1,-1,31,-1,-1,33,35,-1,-1,-1,-1,-1,-1,-1,-1,-1,-1],"loss_changes":[5.521977E1,9.559629E0,3.8880653E0,2.1611652E0,5.588806E0,5.9508495E0,2.175541E0,2.2793655E0,2.3809633E0,2.9013321E0,1.6770282E0,1.6221964E0,0E0,5.5477905E-1,0E0,4.6372223E-1,2.0604618E0,0E0,0E0,0E0,0E0,0E0,1.7997503E-1,0E0,0E0,3.8284302E-1,1.2993282E0,0E0,0E0,0E0,0E0,0E0,0E0,0E0,0E0,0E0,0E0],"parents":[2147483647,0,0,1,1,2,2,3,3,4,4,5,5,6,6,7,7,8,8,9,9,10,10,11,11,13,13,15,15,16,16,22,22,25,25,26,26],"right_children":[2,4,6,8,10,12,14,16,18,20,22,24,-1,26,-1,28,30,-1,-1,-1,-1,-1,32,-1,-1,34,36,-1,-1,-1,-1,-1,-1,-1,-1,-1,-1],"split_conditions":[7E0,1E0,3E-1,1.6050792E0,1E0,1E0,1.7E2,5.8021496E1,2.4551895E2,6.2264957E1,2E0,1.3202351E2,2.7507123E-2,6.7E1,-7.1872533E-3,1.089765E2,4E-1,-2.353495E-2,1.9356167E-2,2.1053732E-3,-4.3746773E-2,-7.541062E-3,5.5680126E-1,-3.378665E-2,1.8852579E-3,4.0069523E1,2.6936398E2,-1.5891593E-2,-4.636765E-2,4.2560026E-3,-2.9834742E-2,6.162331E-3,2.7263416E-2,5.4049385E-3,3.0467791E-2,2.185156E-2,-1.0464513E-2],"split_indices":[12,11,9,9,1,6,3,0,4,0,10,3,0,0,0,3,9,0,0,0,0,0,9,0,0,0,4,0,0,0,0,0,0,0,0,0,0],"split_type":[0,0,0,0,0,0,0,0,0,0,0,0,0,0,0,0,0,0,0,0,0,0,0,0,0,0,0,0,0,0,0,0,0,0,0,0,0],"sum_hessian":[8.5682304E1,3.345875E1,5.2223553E1,2.3184732E1,1.0274019E1,7.3198752E0,4.4903675E1,2.0295649E1,2.8890839E0,3.929752E0,6.3442674E0,3.6936924E0,3.626183E0,4.371924E1,1.1844361E0,1.5110197E1,5.185452E0,1.8586293E0,1.0304544E0,2.0080578E0,1.9216942E0,1.4947052E0,4.849562E0,1.9974952E0,1.6961973E0,4.0664593E1,3.054647E0,1.8784504E0,1.3231747E1,2.358765E0,2.826687E0,1.162757E0,3.6868052E0,1.0427748E0,3.962182E1,2.0276184E0,1.0270286E0],"tree_param":{"num_deleted":"0","num_feature":"14","num_nodes":"37","size_leaf_vector":"1"}},{"base_weights":[2.0992932E-1,-7.7370167E-1,7.9801095E-1,-1.3489217E0,-2.7093944E-1,-4.0003423E-2,9.460766E-1,-1.5029885E0,-7.5509124E-3,-6.8439126E-1,5.940284E-1,-7.6428324E-1,3.9969483E-1,2.3721232E-1,3.1391107E-2,-1.5895436E0,-1.6531916E-2,-9.75368E-1,-1.4503153E-2,-8.633203E-3,2.7299885E-2,-4.1728746E-2,8.581102E-3,-8.427893E-3,7.100347E-1,-1.7488852E-2,6.932137E-1,-4.97929E-2,-1.4752656E-2,-3.544257E-3,-3.6258966E-2,-1.9910486E-2,1.9266253E-2,2.5265044E-2,3.850509E-3,2.4963588E-2,2.6674124E-3],"categories":[],"categories_nodes":[],"categories_segments":[],"categories_sizes":[],"default_left":[0,0,0,0,0,0,0,0,0,0,0,0,0,0,0,0,0,0,0,0,0,0,0,0,0,0,0,0,0,0,0,0,0,0,0,0,0],"id":34,"left_children":[1,3,5,7,9,11,13,15,-1,17,19,21,23,25,-1,27,-1,29,31,-1,-1,-1,-1,-1,33,-1,35,-1,-1,-1,-1,-1,-1,-1,-1,-1,-1],"loss_changes":[4.8163033E1,8.675453E0,6.4816475E0,2.0439606E0,6.8197875E0,3.0943835E0,2.892376E0,1.4274597E-1,0E0,2.4414725E0,2.0269423E0,2.8013265E0,1.4891732E0,2.9355555E0,0E0,1.6523361E-2,0E0,1.6104307E0,2.485414E0,0E0,0E0,0E0,0E0,0E0,2.36022E-1,0E0,3.2950115E-1,0E0,0E0,0E0,0E0,0E0,0E0,0E0,0E0,0E0,0E0],"parents":[2147483647,0,0,1,1,2,2,3,3,4,4,5,5,6,6,7,7,9,9,10,10,11,11,12,12,13,13,15,15,17,17,18,18,24,24,26,26],"right_children":[2,4,6,8,10,12,14,16,-1,18,20,22,24,26,-1,28,-1,30,32,-1,-1,-1,-1,-1,34,-1,36,-1,-1,-1,-1,-1,-1,-1,-1,-1,-1],"split_conditions":[7E0,1E0,4E0,1E0,1E0,2E0,4.146434E-1,1.74E2,-7.5509124E-3,5.7112915E1,2E0,1E0,2E0,1.4703372E2,3.1391107E-2,1.5202351E2,-1.6531916E-2,1.1018708E2,1.511477E2,-8.633203E-3,2.7299885E-2,-4.1728746E-2,8.581102E-3,-8.427893E-3,1.5484326E2,-1.7488852E-2,1.62E2,-4.97929E-2,-1.4752656E-2,-3.544257E-3,-3.6258966E-2,-1.9910486E-2,1.9266253E-2,2.5265044E-2,3.850509E-3,2.4963588E-2,2.6674124E-3],"split_indices":[12,1,2,8,11,10,9,7,0,0,10,11,2,7,0,3,0,3,7,0,0,0,0,0,7,0,7,0,0,0,0,0,0,0,0,0,0],"split_type":[0,0,0,0,0,0,0,0,0,0,0,0,0,0,0,0,0,0,0,0,0,0,0,0,0,0,0,0,0,0,0,0,0,0,0,0,0],"sum_hessian":[8.119411E1,3.0261982E1,5.093212E1,1.3328998E1,1.6932985E1,7.757344E0,4.3174778E1,1.1363572E1,1.965426E0,1.1597963E1,5.335022E0,2.651515E0,5.1058283E0,5.768543E0,3.7406235E1,9.802449E0,1.5611223E0,7.7678537E0,3.8301096E0,1.4309005E0,3.9041214E0,1.4575483E0,1.1939669E0,1.6286682E0,3.4771602E0,1.9617233E0,3.8068194E0,8.731994E0,1.0704557E0,1.9838493E0,5.784004E0,1.9207618E0,1.9093478E0,2.4685934E0,1.0085669E0,2.788785E0,1.0180346E0],"tree_param":{"num_deleted":"0","num_feature":"14","num_nodes":"37","size_leaf_vector":"1"}},{"base_weights":[2.0832296E-1,-6.8628645E-1,8.3540624E-1,-1.0071958E0,-1.24538355E-1,-4.0805865E-2,9.880376E-1,-1.0867897E0,8.510078E-3,-6.920357E-1,3.4747124E-1,6.510493E-1,-4.7860652E-1,4.1066143E-1,3.1375293E-2,-4.321948E-2,-8.177737E-1,-1.0728863E0,2.0237995E-2,6.318108E-1,-1.47718545E-2,2.3474555E-2,4.9650786E-3,-7.940754E-1,5.37596E-3,-6.500912E-2,2.3395337E-2,1.1798766E-2,-2.8652683E-2,-4.2276125E-2,-9.888335E-3,2.094708E-2,4.784715E-3,-4.205195E-2,2.8381862E-3,7.740253E-3,-1.2627152E-2],"categories":[],"categories_nodes":[],"categories_segments":[],"categories_sizes":[],"default_left":[0,0,0,0,0,0,0,0,0,0,0,0,0,0,0,0,0,0,0,0,0,0,0,0,0,0,0,0,0,0,0,0,0,0,0,0,0],"id":35,"left_children":[1,3,5,7,9,11,13,15,-1,17,19,21,23,25,-1,-1,27,29,-1,31,-1,-1,-1,33,-1,35,-1,-1,-1,-1,-1,-1,-1,-1,-1,-1,-1],"loss_changes":[4.9863758E1,6.500723E0,7.008808E0,2.6973152E0,4.1257873E0,2.9438572E0,1.052906E0,9.264698E-1,0E0,4.3257704E0,2.3611045E0,1.12472534E-1,1.3663807E0,1.0496714E0,0E0,0E0,2.8489676E0,9.849405E-1,0E0,1.0358596E-1,0E0,0E0,0E0,2.3849375E0,0E0,5.004813E-1,0E0,0E0,0E0,0E0,0E0,0E0,0E0,0E0,0E0,0E0,0E0],"parents":[2147483647,0,0,1,1,2,2,3,3,4,4,5,5,6,6,7,7,9,9,10,10,11,11,12,12,13,13,16,16,17,17,19,19,23,23,25,25],"right_children":[2,4,6,8,10,12,14,16,-1,18,20,22,24,26,-1,-1,28,30,-1,32,-1,-1,-1,34,-1,36,-1,-1,-1,-1,-1,-1,-1,-1,-1,-1,-1],"split_conditions":[7E0,4E0,4E0,2.412654E0,1E0,1.500755E2,3E-1,2.23E2,8.510078E-3,1.4018057E2,1.3889598E2,1.3037663E2,1.4018057E2,1E0,3.1375293E-2,-4.321948E-2,2.33E2,5.8021496E1,2.0237995E-2,6E0,-1.47718545E-2,2.3474555E-2,4.9650786E-3,1.6348488E2,5.37596E-3,1E-1,2.3395337E-2,1.1798766E-2,-2.8652683E-2,-4.2276125E-2,-9.888335E-3,2.094708E-2,4.784715E-3,-4.205195E-2,2.8381862E-3,7.740253E-3,-1.2627152E-2],"split_indices":[12,2,2,9,1,7,9,4,0,3,3,3,3,6,0,0,4,0,0,12,0,0,0,7,0,9,0,0,0,0,0,0,0,0,0,0,0],"split_type":[0,0,0,0,0,0,0,0,0,0,0,0,0,0,0,0,0,0,0,0,0,0,0,0,0,0,0,0,0,0,0,0,0,0,0,0,0],"sum_hessian":[8.686257E1,3.57568E1,5.110577E1,2.225197E1,1.3504831E1,7.690351E0,4.3415417E1,2.1108524E1,1.1434467E0,5.9204836E0,7.5843472E0,2.7916396E0,4.898711E0,4.688611E0,3.8726807E1,7.235631E0,1.3872893E1,4.7982597E0,1.122224E0,5.851147E0,1.7332003E0,1.715661E0,1.0759785E0,3.1708717E0,1.7278394E0,2.4088554E0,2.2797558E0,1.2229403E0,1.2649953E1,2.6866589E0,2.1116009E0,4.7103863E0,1.1407608E0,1.5403243E0,1.6305475E0,1.4069383E0,1.0019171E0],"tree_param":{"num_deleted":"0","num_feature":"14","num_nodes":"37","size_leaf_vector":"1"}},{"base_weights":[1.5250374E-1,-9.102187E-1,6.711833E-1,-1.38831E0,-3.6286798E-1,-2.0644598E-1,9.1662675E-1,-4.3752126E-2,-9.924862E-3,-8.2543254E-1,6.0926694E-1,-5.573724E-1,4.206089E-1,1.643838E-1,3.1227758E-2,-1.0520322E0,9.90898E-3,2.7127584E-2,-6.758845E-3,-8.01544E-1,5.0467342E-2,-6.803864E-3,2.4136629E-2,-6.133596E-1,6.7665476E-1,-4.1261565E-2,5.085706E-4,3.1727222E-3,-3.418983E-2,2.083337E-2,-1.802816E-2,-4.22537E-2,1.7483186E-2,2.4422456E-2,3.1312066E-3],"categories":[],"categories_nodes":[],"categories_segments":[],"categories_sizes":[],"default_left":[0,0,0,0,0,0,0,0,0,0,0,0,0,0,0,0,0,0,0,0,0,0,0,0,0,0,0,0,0,0,0,0,0,0,0],"id":36,"left_children":[1,3,5,7,9,11,13,-1,-1,15,17,19,21,23,-1,25,-1,-1,-1,27,29,-1,-1,31,33,-1,-1,-1,-1,-1,-1,-1,-1,-1,-1],"loss_changes":[4.5087616E1,6.5327263E0,1.19935055E1,5.551605E-1,6.7491055E0,3.049408E0,3.850174E0,0E0,0E0,2.9235973E0,1.4478852E0,1.3216228E0,1.465127E0,3.317962E0,0E0,2.9486809E0,0E0,0E0,0E0,2.0279298E0,1.8497194E0,0E0,0E0,4.071388E0,2.9790664E-1,0E0,0E0,0E0,0E0,0E0,0E0,0E0,0E0,0E0,0E0],"parents":[2147483647,0,0,1,1,2,2,3,3,4,4,5,5,6,6,9,9,10,10,11,11,12,12,13,13,15,15,19,19,20,20,23,23,24,24],"right_children":[2,4,6,8,10,12,14,-1,-1,16,18,20,22,24,-1,26,-1,-1,-1,28,30,-1,-1,32,34,-1,-1,-1,-1,-1,-1,-1,-1,-1,-1],"split_conditions":[4E0,2E0,7E0,3.2618356E2,1E0,1E0,4.146434E-1,-4.3752126E-2,-9.924862E-3,2.6102765E0,2.37E2,5.101808E-1,1E0,2.3372711E2,3.1227758E-2,2.7179382E2,9.90898E-3,2.7127584E-2,-6.758845E-3,1.9184937E2,2.856835E2,-6.803864E-3,2.4136629E-2,2E0,5.101808E-1,-4.1261565E-2,5.085706E-4,3.1727222E-3,-3.418983E-2,2.083337E-2,-1.802816E-2,-4.22537E-2,1.7483186E-2,2.4422456E-2,3.1312066E-3],"split_indices":[2,10,12,4,11,11,9,0,0,9,4,13,1,4,0,4,0,0,0,4,4,0,0,10,13,0,0,0,0,0,0,0,0,0,0],"split_type":[0,0,0,0,0,0,0,0,0,0,0,0,0,0,0,0,0,0,0,0,0,0,0,0,0,0,0,0,0,0,0,0,0,0,0],"sum_hessian":[7.968885E1,2.588933E1,5.3799522E1,1.2998867E1,1.2890464E1,1.1792414E1,4.200711E1,1.1835247E1,1.1636193E0,8.836675E0,4.053789E0,7.632225E0,4.1601887E0,6.2861896E0,3.572092E1,7.4631343E0,1.3735403E0,2.9334278E0,1.1203614E0,5.2176127E0,2.4146123E0,1.7011062E0,2.4590826E0,2.4179142E0,3.8682756E0,5.509851E0,1.9532832E0,1.6030946E0,3.614518E0,1.1810033E0,1.233609E0,1.3458122E0,1.0721018E0,2.778523E0,1.0897527E0],"tree_param":{"num_deleted":"0","num_feature":"14","num_nodes":"35","size_leaf_vector":"1"}},{"base_weights":[1.846866E-1,-7.112015E-1,6.57199E-1,-1.2426544E0,-3.7463206E-1,-3.389206E-1,8.475537E-1,-1.3335613E0,-9.924297E-3,-1.0485669E0,-6.323295E-2,-3.43104E-2,3.5825428E-1,1.0344875E-1,9.8003554E-1,-4.329803E-2,-1.2464754E-2,-4.072634E-2,-3.2846773E-1,2.598486E-2,-2.8608352E-1,-2.4472521E-1,2.410398E-2,-4.6172228E-1,5.2153283E-1,2.3642762E-3,1.0269372E0,-1.1697669E-3,-1.3830065E-2,1.1903677E-2,-2.5140246E-2,-1.7413441E-2,5.3577684E-3,-3.0935714E-2,8.790486E-3,-6.2699644E-3,2.5106054E-2,3.1374693E-2,7.914626E-3],"categories":[],"categories_nodes":[],"categories_segments":[],"categories_sizes":[],"default_left":[0,0,0,0,0,0,0,0,0,0,0,0,0,0,0,0,0,0,0,0,0,0,0,0,0,0,0,0,0,0,0,0,0,0,0,0,0,0,0],"id":37,"left_children":[1,3,5,7,9,11,13,15,-1,17,19,-1,21,23,25,-1,-1,-1,27,-1,29,31,-1,33,35,-1,37,-1,-1,-1,-1,-1,-1,-1,-1,-1,-1,-1,-1],"loss_changes":[3.473494E1,4.6202E0,1.0434996E1,4.3692207E-1,3.8874202E0,5.627862E0,4.3561134E0,3.3728027E-1,0E0,8.645339E-1,3.1370242E0,0E0,1.7388496E0,2.1197271E0,1.5364952E0,0E0,0E0,0E0,1.00480825E-1,0E0,4.856583E0,5.5937743E-1,0E0,1.9833398E0,1.33599E0,0E0,2.470932E-1,0E0,0E0,0E0,0E0,0E0,0E0,0E0,0E0,0E0,0E0,0E0,0E0],"parents":[2147483647,0,0,1,1,2,2,3,3,4,4,5,5,6,6,7,7,9,9,10,10,12,12,13,13,14,14,18,18,20,20,21,21,23,23,24,24,26,26],"right_children":[2,4,6,8,10,12,14,16,-1,18,20,-1,22,24,26,-1,-1,-1,28,-1,30,32,-1,34,36,-1,38,-1,-1,-1,-1,-1,-1,-1,-1,-1,-1,-1,-1],"split_conditions":[4E0,1E0,1E0,1.74E2,2.2137256E2,1.3037663E2,4.146434E-1,1E0,-9.924297E-3,3E0,1.4218675E2,-3.43104E-2,1.4173096E0,1E0,1.1018708E2,-4.329803E-2,-1.2464754E-2,-4.072634E-2,1.4176553E2,2.598486E-2,2.4352556E2,1E0,2.410398E-2,2.264391E2,1.4703372E2,2.3642762E-3,1.706474E2,-1.1697669E-3,-1.3830065E-2,1.1903677E-2,-2.5140246E-2,-1.7413441E-2,5.3577684E-3,-3.0935714E-2,8.790486E-3,-6.2699644E-3,2.5106054E-2,3.1374693E-2,7.914626E-3],"split_indices":[2,1,1,7,4,3,9,5,0,2,7,0,9,11,3,0,0,0,3,0,4,8,0,4,7,0,7,0,0,0,0,0,0,0,0,0,0,0,0],"split_type":[0,0,0,0,0,0,0,0,0,0,0,0,0,0,0,0,0,0,0,0,0,0,0,0,0,0,0,0,0,0,0,0,0,0,0,0,0,0,0],"sum_hessian":[7.9949814E1,2.743246E1,5.2517357E1,9.592889E0,1.7839571E1,8.300523E0,4.4216835E1,8.302662E0,1.2902269E0,4.889772E0,1.29498E1,3.5556884E0,4.744834E0,6.9518037E0,3.726503E1,6.905419E0,1.3972431E0,2.8021958E0,2.0875762E0,1.9462509E0,1.1003549E1,2.2066033E0,2.538231E0,2.9115536E0,4.04025E0,1.9760021E0,3.528903E1,1.0620661E0,1.0255101E0,5.043957E0,5.9595914E0,1.0236126E0,1.1829907E0,1.450687E0,1.4608667E0,1.3198345E0,2.7204154E0,3.4075256E1,1.2137712E0],"tree_param":{"num_deleted":"0","num_feature":"14","num_nodes":"39","size_leaf_vector":"1"}},{"base_weights":[1.6650136E-1,-5.962099E-1,6.7781436E-1,-6.781704E-1,2.1871978E-2,2.4540616E-2,8.851705E-1,2.1333281E-2,-7.672008E-1,-8.0838484E-1,3.8362575E-1,9.2570835E-1,-4.448487E-4,-4.488272E-1,-1.0811235E0,4.8137773E-3,-3.6335707E-2,-2.2569375E-2,7.6744306E-1,4.028643E-1,9.8937774E-1,7.7448613E-3,-2.3879947E-2,-3.8529664E-2,-1.747773E-2,2.9694488E-2,-8.261258E-3,1.927548E-2,-1.0270841E-2,3.110757E-2,1.2085791E-2],"categories":[],"categories_nodes":[],"categories_segments":[],"categories_sizes":[],"default_left":[0,0,0,0,0,0,0,0,0,0,0,0,0,0,0,0,0,0,0,0,0,0,0,0,0,0,0,0,0,0,0],"id":38,"left_children":[1,3,5,7,-1,9,11,-1,13,15,17,19,-1,21,23,-1,-1,-1,25,27,29,-1,-1,-1,-1,-1,-1,-1,-1,-1,-1],"loss_changes":[3.246401E1,4.1359453E0,6.708349E0,4.514806E0,0E0,4.1979723E0,1.3885956E0,0E0,2.5769768E0,1.8481178E0,4.8331857E0,8.0233955E-1,0E0,4.3588257E0,7.4267006E-1,0E0,0E0,0E0,2.0792732E0,1.2206554E0,4.5984077E-1,0E0,0E0,0E0,0E0,0E0,0E0,0E0,0E0,0E0,0E0],"parents":[2147483647,0,0,1,1,2,2,3,3,5,5,6,6,8,8,9,9,10,10,11,11,13,13,14,14,18,18,19,19,20,20],"right_children":[2,4,6,8,-1,10,12,-1,14,16,18,20,-1,22,24,-1,-1,-1,26,28,30,-1,-1,-1,-1,-1,-1,-1,-1,-1,-1],"split_conditions":[6E0,2.6102765E0,6.018076E-1,1.12E2,2.1871978E-2,2.2756384E2,3E0,2.1333281E-2,4E-1,1.14376114E2,1.20297386E2,1.1844073E2,-4.448487E-4,1.5827518E2,1.6216937E2,4.8137773E-3,-3.6335707E-2,-2.2569375E-2,5.806624E-1,6.0006813E1,1.61E2,7.7448613E-3,-2.3879947E-2,-3.8529664E-2,-1.747773E-2,2.9694488E-2,-8.261258E-3,1.927548E-2,-1.0270841E-2,3.110757E-2,1.2085791E-2],"split_indices":[12,9,9,7,0,4,10,0,9,3,3,3,0,7,7,0,0,0,13,0,7,0,0,0,0,0,0,0,0,0,0],"split_type":[0,0,0,0,0,0,0,0,0,0,0,0,0,0,0,0,0,0,0,0,0,0,0,0,0,0,0,0,0,0,0],"sum_hessian":[8.1208176E1,3.2525204E1,4.8682972E1,3.1090708E1,1.4344969E0,1.19988985E1,3.6684074E1,1.4516177E0,2.9639091E1,3.2376611E0,8.761237E0,3.5075626E1,1.6084465E0,1.5921542E1,1.3717548E1,1.12747E0,2.110191E0,1.9701978E0,6.7910395E0,4.6030955E0,3.0472532E1,5.327945E0,1.0593597E1,8.625603E0,5.0919456E0,5.6393213E0,1.1517178E0,3.587304E0,1.0157915E0,2.7477383E1,2.995149E0],"tree_param":{"num_deleted":"0","num_feature":"14","num_nodes":"31","size_leaf_vector":"1"}},{"base_weights":[1.647834E-1,-6.707731E-1,5.89361E-1,-1.1526852E0,-3.8476342E-1,-1.3579673E-1,8.444293E-1,-6.552793E-1,-4.0435307E-2,-6.848457E-1,1.166396E-1,-5.8018917E-1,3.0491787E-1,-3.5278118E-1,9.281064E-1,-3.0497646E-2,6.527484E-4,-8.8524175E-1,1.9337473E-2,-4.5713592E-1,2.9638905E-2,2.0346526E-2,-8.882144E-1,7.863161E-1,-4.8397014E-1,-2.4553347E-2,7.4726995E-3,6.285021E-3,9.6513915E-1,-3.325943E-2,-7.511751E-3,1.0633176E-2,-2.2767764E-2,-3.5706285E-2,-1.9748758E-3,2.6279371E-2,6.5980926E-3,9.6864095E-3,-3.2412767E-2,2.9715091E-2,2.7766626E-3],"categories":[],"categories_nodes":[],"categories_segments":[],"categories_sizes":[],"default_left":[0,0,0,0,0,0,0,0,0,0,0,0,0,0,0,0,0,0,0,0,0,0,0,0,0,0,0,0,0,0,0,0,0,0,0,0,0,0,0,0,0],"id":39,"left_children":[1,3,5,7,9,11,13,15,-1,17,19,21,23,25,27,-1,-1,29,-1,31,-1,-1,33,35,37,-1,-1,-1,39,-1,-1,-1,-1,-1,-1,-1,-1,-1,-1,-1,-1],"loss_changes":[2.717219E1,3.1261759E0,9.470226E0,4.508972E-3,2.751186E0,2.9233432E0,4.0898514E0,1.1285628E0,0E0,3.5683608E0,4.2020693E0,3.442474E0,3.3033345E0,1.094588E0,7.393093E-1,0E0,0E0,1.1690164E0,0E0,1.5442743E0,0E0,0E0,1.4910431E0,6.941128E-2,2.050368E0,0E0,0E0,0E0,6.468239E-1,0E0,0E0,0E0,0E0,0E0,0E0,0E0,0E0,0E0,0E0,0E0,0E0],"parents":[2147483647,0,0,1,1,2,2,3,3,4,4,5,5,6,6,7,7,9,9,10,10,11,11,12,12,13,13,14,14,17,17,19,19,22,22,23,23,24,24,28,28],"right_children":[2,4,6,8,10,12,14,16,-1,18,20,22,24,26,28,-1,-1,30,-1,32,-1,-1,34,36,38,-1,-1,-1,40,-1,-1,-1,-1,-1,-1,-1,-1,-1,-1,-1,-1],"split_conditions":[4E0,1E0,6.018076E-1,3E0,5.602468E1,5.7112915E1,1.1234949E2,5.5011345E1,-4.0435307E-2,1.9528228E0,2.71E2,1.85E2,5.811287E-1,2.3936864E2,4.314293E1,-3.0497646E-2,6.527484E-4,1.3037663E2,1.9337473E-2,5.7112915E1,2.9638905E-2,2.0346526E-2,2E0,3.6366737E-1,6.346003E1,-2.4553347E-2,7.4726995E-3,6.285021E-3,3.4550653E2,-3.325943E-2,-7.511751E-3,1.0633176E-2,-2.2767764E-2,-3.5706285E-2,-1.9748758E-3,2.6279371E-2,6.5980926E-3,9.6864095E-3,-3.2412767E-2,2.9715091E-2,2.7766626E-3],"split_indices":[2,1,9,2,0,0,3,0,0,9,4,4,13,4,0,0,0,3,0,0,0,0,10,9,0,0,0,0,4,0,0,0,0,0,0,0,0,0,0,0,0],"split_type":[0,0,0,0,0,0,0,0,0,0,0,0,0,0,0,0,0,0,0,0,0,0,0,0,0,0,0,0,0,0,0,0,0,0,0,0,0,0,0,0,0],"sum_hessian":[7.4479126E1,2.4898914E1,4.9580208E1,8.144911E0,1.6754004E1,1.302313E1,3.655708E1,3.523118E0,4.621793E0,1.0252297E1,6.5017066E0,6.326928E0,6.696202E0,2.1780896E0,3.437899E1,1.9701831E0,1.5529349E0,9.199671E0,1.0526266E0,4.2068253E0,2.2948816E0,1.007807E0,5.3191214E0,4.1605783E0,2.5356236E0,1.0251241E0,1.1529657E0,2.01112E0,3.2367867E1,6.2529287E0,2.9467416E0,1.0930167E0,3.1138082E0,3.5633337E0,1.7557874E0,3.120022E0,1.0405561E0,1.2726817E0,1.262942E0,3.1322266E1,1.0456032E0],"tree_param":{"num_deleted":"0","num_feature":"14","num_nodes":"41","size_leaf_vector":"1"}},{"base_weights":[1.552135E-1,-6.583588E-1,7.125363E-1,-9.744239E-1,-2.2166313E-1,-2.0877296E-1,9.010177E-1,-2.871681E-1,-1.1743613E0,-6.1463016E-1,4.3771565E-1,-6.264926E-1,4.4472638E-1,1.0693286E-3,9.396952E-1,-2.6732506E-2,7.334619E-2,-4.2793624E-2,-4.858715E-1,-2.9372742E-2,-1.4559282E-1,-2.0099722E-1,2.7498346E-2,7.6911394E-3,-8.9436656E-1,-5.717954E-3,2.260001E-2,5.294202E-1,1.0006644E0,1.6634712E-2,-1.7219603E-2,-2.9244509E-2,6.4531695E-3,-1.6018583E-2,1.34875905E-2,7.927756E-3,-1.906027E-2,-1.2512809E-3,-3.6157634E-2,2.838179E-4,2.5197623E-2,8.884455E-3,3.0904153E-2],"categories":[],"categories_nodes":[],"categories_segments":[],"categories_sizes":[],"default_left":[0,0,0,0,0,0,0,0,0,0,0,0,0,0,0,0,0,0,0,0,0,0,0,0,0,0,0,0,0,0,0,0,0,0,0,0,0,0,0,0,0,0,0],"id":40,"left_children":[1,3,5,7,9,11,13,15,17,19,21,23,25,-1,27,-1,29,-1,31,-1,33,35,-1,-1,37,-1,-1,39,41,-1,-1,-1,-1,-1,-1,-1,-1,-1,-1,-1,-1,-1,-1],"loss_changes":[3.6232758E1,4.281598E0,8.399899E0,2.21982E0,4.149603E0,2.6926532E0,1.2867851E0,1.266617E0,1.7527428E0,1.5326858E0,2.0734873E0,1.6033382E0,9.3436915E-1,0E0,4.1373825E-1,0E0,1.6821288E0,0E0,2.0239499E0,0E0,1.5020566E0,8.68469E-1,0E0,0E0,1.1903951E0,0E0,0E0,1.1227564E0,3.5350037E-1,0E0,0E0,0E0,0E0,0E0,0E0,0E0,0E0,0E0,0E0,0E0,0E0,0E0,0E0],"parents":[2147483647,0,0,1,1,2,2,3,3,4,4,5,5,6,6,7,7,8,8,9,9,10,10,11,11,12,12,14,14,16,16,18,18,20,20,21,21,24,24,27,27,28,28],"right_children":[2,4,6,8,10,12,14,16,18,20,22,24,26,-1,28,-1,30,-1,32,-1,34,36,-1,-1,38,-1,-1,40,42,-1,-1,-1,-1,-1,-1,-1,-1,-1,-1,-1,-1,-1,-1],"split_conditions":[6E0,2E0,4E0,1.1234949E2,1E0,1E0,7E0,1.08E2,5.8021496E1,4E0,1.5245834E2,1.4139157E2,2E0,1.0693286E-3,2E0,-2.6732506E-2,2.4352556E2,-4.2793624E-2,1.5728651E2,-2.9372742E-2,5.101808E-1,1.2527087E2,